6237 60
5988 -0.001876 -0.006467 -0.006877 0.003419 -0.007606 -0.006136 0.004905 0.000927 -0.000732 0.002319 -0.003245 0.004342 0.007014 -0.001853 0.000040 -0.001995 0.003419 -0.003889 -0.005494 0.006449 -0.002054 -0.006073 0.003314 0.002413 -0.003007 -0.002773 0.007163 0.000713 0.000514 -0.001262 0.000659 0.002749 0.001828 0.001064 0.005358 0.003462 0.004476 -0.007715 -0.002593 0.002393 -0.001432 -0.004928 -0.005647 -0.000031 -0.008172 0.000328 0.002461 -0.005623 0.005958 -0.005997 -0.004632 0.000040 -0.008190 0.004326 0.004308 0.007528 0.005900 -0.003977 -0.006801 -0.006090
5989 -0.006295 -0.004852 -0.008079 -0.006775 0.000647 0.001278 -0.003518 0.008287 0.006127 0.007109 0.001930 -0.005011 -0.001137 -0.004727 -0.004131 -0.001724 0.003133 -0.003080 0.000377 0.005706 -0.002516 0.001718 -0.001582 -0.006552 -0.002122 0.004765 0.002133 -0.005749 0.008290 -0.000546 -0.003933 -0.001826 -0.003183 -0.003694 -0.003859 -0.008207 0.002190 -0.003400 -0.005808 -0.002145 -0.000014 0.006780 0.003068 -0.005900 -0.000066 -0.007063 0.001975 -0.001969 0.001235 0.008251 -0.003399 -0.008302 0.003598 0.004517 0.006320 0.004676 -0.002824 -0.005610 -0.004197 -0.002021
5982 0.007191 0.005616 0.003129 -0.007623 0.003062 0.002789 -0.005835 0.004373 0.003585 0.004348 0.002491 0.006779 -0.003429 0.003636 -0.003661 0.005035 -0.000004 -0.007652 -0.003699 0.002741 0.003148 -0.005220 -0.006175 -0.000949 0.000838 -0.000577 0.000798 0.005320 0.001859 0.001364 0.005952 -0.006174 0.005060 0.002183 0.006083 0.005613 0.000381 0.001619 0.004863 0.006871 -0.002750 0.001731 0.008071 0.002677 0.006841 -0.004601 0.007359 0.003656 0.003274 0.004257 -0.006149 0.006736 -0.002415 0.003155 -0.000624 0.006501 -0.004984 -0.002359 0.007408 -0.003108
5980 0.003900 -0.004443 -0.008167 -0.006883 0.001489 -0.007404 0.007826 -0.007159 -0.003398 0.001525 0.005266 0.006574 -0.006955 0.001787 0.003593 -0.004888 0.008175 0.006776 0.000310 0.005920 0.002097 0.004469 -0.001333 -0.005929 -0.003485 0.003849 -0.005984 0.002265 -0.002883 -0.005311 0.001827 -0.006958 -0.003564 -0.000416 -0.001530 -0.006919 -0.001461 0.007085 -0.003147 -0.002596 0.004756 -0.008131 -0.000685 0.005546 -0.004718 -0.002133 0.005495 -0.001479 0.007000 -0.004478 -0.003503 -0.004602 0.002581 0.006476 0.004761 -0.005793 -0.003509 0.000438 0.005765 -0.000844
5981 -0.002825 0.005424 0.007975 0.001272 -0.002310 -0.003836 -0.001938 -0.001081 -0.006111 0.001294 0.007389 -0.003444 -0.000284 -0.006067 -0.002822 -0.007744 -0.005854 -0.001305 0.005708 0.007709 -0.001093 -0.002591 -0.004554 -0.002827 -0.000330 0.007563 0.000291 -0.005463 -0.000522 0.005388 0.001003 0.004012 0.003480 0.006396 0.001278 -0.006974 0.002145 0.004076 0.001993 -0.001860 0.002771 -0.004007 -0.001855 -0.007314 -0.003569 0.002717 0.000142 -0.005653 -0.003617 0.005941 0.007112 -0.001864 0.002579 -0.000841 -0.002669 -0.004372 -0.002082 -0.001382 0.007007 -0.001295
5986 -0.000360 0.004310 -0.008020 0.007226 0.000677 0.003918 0.006534 0.005149 -0.007613 0.005442 0.007924 -0.002067 -0.004332 0.007339 0.004369 0.004289 0.003076 0.002309 0.005926 0.002965 -0.004047 0.007889 0.004245 -0.007715 -0.003787 -0.001597 -0.003769 -0.005583 0.006304 0.006424 -0.000383 -0.000225 -0.007730 0.000564 -0.003245 -0.004365 -0.007380 0.000824 -0.006001 -0.001561 -0.007966 0.002489 -0.004162 0.003490 -0.005245 -0.006238 -0.000327 0.007138 -0.000911 -0.000352 0.000908 0.007764 -0.005041 0.004330 0.006867 -0.002215 -0.007496 0.002606 -0.004114 -0.003817
5987 -0.004345 0.007521 -0.004991 -0.003036 -0.002293 0.004556 0.001729 -0.005690 -0.007265 -0.003788 -0.004622 -0.005035 0.003587 0.007307 0.005055 0.007048 0.006173 -0.002897 -0.002244 0.003419 -0.006256 0.007197 -0.000701 -0.002202 -0.003545 0.004767 -0.004571 -0.003279 -0.005929 -0.006110 -0.006399 -0.002908 0.001361 0.003235 -0.004781 -0.000019 0.000573 0.007910 -0.002722 -0.003647 -0.002329 0.004205 0.006513 0.004793 0.000916 -0.007816 -0.007545 0.003278 0.002458 -0.001525 -0.006780 0.001264 -0.003181 -0.002468 -0.001310 0.002343 -0.000227 0.002195 -0.000003 -0.000643
5984 0.001926 0.000124 -0.001315 -0.004174 -0.001915 0.002986 -0.001451 -0.003554 0.006655 -0.002345 -0.000769 -0.001667 -0.003463 -0.004772 0.005164 0.003436 0.003404 -0.002015 0.005037 0.004137 0.005520 -0.003328 0.004573 0.006132 0.001922 0.007898 -0.000913 0.000221 -0.001151 -0.004085 0.004574 -0.005912 0.000439 -0.001127 -0.007884 0.001860 0.000659 0.006349 0.001764 -0.001927 -0.007736 -0.000130 0.002004 0.005538 -0.005569 0.006203 -0.006646 0.003368 0.007350 -0.001606 -0.005763 0.007040 0.004842 -0.004274 -0.007874 0.008052 -0.000623 0.005646 0.001903 0.006672
5985 0.004531 0.002169 -0.003325 0.001119 -0.001453 0.000804 -0.000538 0.004014 0.007015 -0.007757 0.006943 0.004869 -0.002479 0.003432 -0.001994 -0.003135 -0.004563 0.006878 -0.006479 -0.001331 0.003676 -0.004901 -0.004851 -0.005052 -0.006136 0.005535 -0.001591 0.005764 -0.001228 0.002496 -0.007417 0.007167 0.006219 -0.006663 0.007099 0.003449 0.005132 0.004121 0.004016 0.001048 0.000910 -0.006070 0.001940 0.001946 0.004157 0.000726 -0.001012 -0.006431 -0.000999 -0.003050 0.001759 0.001115 -0.002896 -0.004153 0.006758 0.001690 0.004317 -0.006507 0.004334 0.006867
2147 -0.007811 -0.002188 0.003369 -0.004570 0.005497 0.002301 -0.000594 0.005800 0.004198 0.005858 0.003133 0.008143 0.001764 -0.003802 -0.000859 0.004976 -0.001086 0.004860 0.000382 0.002586 0.000773 0.000923 0.007883 -0.004752 -0.008169 -0.005898 -0.006985 -0.001096 -0.007635 0.000517 -0.004559 -0.004732 0.007505 -0.003771 0.007776 0.004762 0.005562 -0.004573 0.007259 -0.008265 -0.006370 0.001947 0.001666 -0.007521 0.003940 0.006163 0.001942 -0.002254 -0.000338 0.001802 0.002572 0.006319 0.000204 -0.006563 0.006942 0.004894 -0.001452 -0.002552 0.002685 -0.005622
270 -0.005431 -0.004591 -0.007362 -0.007952 0.002283 -0.007546 -0.002548 -0.007929 0.004661 -0.005071 -0.003536 0.004577 0.000850 -0.006803 0.002607 0.008246 -0.006979 0.000799 -0.003291 -0.000346 -0.001049 0.000728 -0.005983 -0.006329 0.001869 0.004949 -0.001766 -0.007753 0.006689 0.003348 -0.001667 -0.003102 -0.006537 0.006985 0.002167 0.002104 0.001217 0.007302 -0.002990 0.005000 0.007168 0.006947 -0.003514 0.003766 -0.007992 0.005125 -0.007645 0.001722 -0.004924 -0.004375 0.001768 -0.002809 -0.003839 0.005251 -0.007535 0.007013 -0.002308 0.005948 -0.007483 0.008030
271 0.006045 0.001861 -0.005174 -0.005128 -0.003698 0.001714 -0.007627 -0.005958 -0.002846 0.004366 0.002487 0.003282 0.002733 -0.003551 -0.006083 -0.003337 0.004218 -0.000834 0.006955 -0.003267 0.000979 0.007916 -0.006670 -0.007197 -0.002433 -0.003904 0.000789 -0.001702 -0.002209 0.004187 0.002329 0.007212 0.006742 -0.001504 0.006796 0.004991 0.001179 0.007807 -0.003981 -0.005353 0.000314 -0.005672 0.002015 0.004674 -0.000001 0.003863 0.004709 0.000438 0.001876 -0.000840 0.008175 0.002942 0.005673 0.001452 0.005019 0.007059 -0.003477 -0.003368 -0.000195 -0.001505
272 0.000897 0.001643 -0.007870 -0.000603 0.002679 0.000319 0.007885 -0.004163 -0.002483 -0.003161 0.002741 -0.007039 -0.002932 -0.001169 -0.002023 -0.003726 0.005239 -0.001391 0.001521 -0.006505 0.002457 -0.007505 -0.006358 0.001824 -0.006033 0.004226 0.000085 0.007356 0.002209 0.005762 -0.002104 -0.004782 -0.002080 -0.007222 -0.001408 -0.006182 0.003173 0.006574 0.005976 0.002529 -0.002746 0.000106 -0.005115 -0.005612 0.006953 0.004145 -0.006378 -0.002722 0.002787 -0.000742 -0.003442 -0.001955 -0.006271 0.006486 0.002881 0.004609 -0.006508 -0.008021 0.007559 0.000290
273 -0.005579 0.006888 0.000014 0.001895 0.002052 0.002674 -0.000622 0.001300 -0.003700 -0.004112 -0.003928 0.001919 0.003711 -0.005184 -0.002436 0.005741 -0.006318 0.002131 -0.005404 -0.007904 -0.006323 -0.006162 0.001457 -0.003962 -0.004163 -0.005355 -0.001320 -0.001110 0.007572 0.000367 -0.003766 0.007692 0.003079 -0.000426 0.002518 -0.000348 0.002340 -0.005437 -0.001751 0.001758 0.007274 -0.000537 -0.002155 0.007430 0.003079 0.007992 0.000823 -0.004344 -0.004896 -0.004199 -0.002317 0.006068 0.006881 0.007154 -0.008022 -0.006870 -0.007035 0.003628 -0.007978 0.002204
274 0.000389 0.003457 0.001302 -0.000297 0.004797 -0.005098 -0.005326 0.006713 -0.005686 0.003680 -0.006612 0.004567 -0.005008 -0.003045 0.005710 -0.003677 0.007629 0.000219 -0.007579 -0.002275 0.004295 0.001338 -0.006729 0.007402 -0.004141 0.007489 -0.006757 -0.005597 0.008065 -0.007560 0.000151 -0.007527 -0.006240 0.000504 0.008078 -0.007772 0.006044 0.002783 -0.005647 0.003151 -0.003446 0.000773 0.001222 -0.002067 -0.007315 -0.001523 -0.007724 0.001028 0.007203 -0.006990 0.007414 -0.001286 -0.003386 0.000375 0.007589 0.004507 -0.005892 0.006647 -0.008313 -0.003373
275 0.003624 0.000651 -0.004098 0.001346 0.001840 -0.001217 -0.001865 -0.003348 -0.004323 0.005059 -0.000240 -0.002283 -0.005013 0.007736 -0.004916 -0.004319 0.007849 0.001460 -0.004542 0.002031 0.002453 -0.004516 -0.005341 -0.005404 -0.002561 0.004670 -0.007739 -0.003406 -0.004372 -0.008251 -0.002251 0.005587 0.006630 0.006325 -0.005008 0.005986 -0.002375 0.001353 -0.002945 0.002894 -0.000335 -0.005175 -0.001857 0.004160 -0.003936 -0.004892 0.007234 -0.003444 -0.005869 0.000107 0.001007 -0.002108 0.003097 -0.005620 -0.000418 0.005707 0.003064 -0.001380 -0.007745 0.007013
276 -0.004733 0.004851 -0.002695 -0.007011 -0.004462 -0.008138 -0.006645 0.007734 0.002402 -0.002562 -0.005779 -0.006119 -0.005193 0.007409 -0.003806 -0.002582 -0.003960 -0.000299 0.006096 -0.002666 -0.007869 0.005113 -0.003062 0.000168 -0.008221 -0.001493 0.007001 0.001309 0.001697 0.005477 0.001228 0.001203 -0.002261 0.008210 -0.000914 -0.004919 0.001689 0.000127 0.006716 -0.007811 -0.007449 0.002754 0.007664 0.003303 -0.001832 0.003061 0.005693 -0.000738 -0.007205 -0.007527 -0.002580 0.000504 0.002729 -0.005774 0.001290 0.006375 -0.007475 0.001758 -0.003549 -0.007839
277 -0.005123 0.008154 -0.007215 -0.004888 0.001692 -0.007916 -0.005029 -0.005390 -0.005790 0.007083 -0.003638 -0.003893 -0.007635 0.003351 -0.006925 0.003227 0.004493 0.005788 0.008238 -0.002442 0.002343 -0.001494 0.006812 0.004714 0.000890 -0.003276 0.000975 0.007953 0.007546 -0.007139 -0.004926 0.007617 -0.000104 0.005833 -0.005099 -0.004684 -0.003595 -0.006904 0.002876 -0.001929 0.001196 0.006063 0.001631 -0.002823 -0.008143 0.000857 -0.000200 -0.006463 -0.001751 -0.006692 0.004504 0.000905 -0.001430 -0.006572 -0.003621 0.006360 -0.005080 0.002006 -0.003825 -0.000033
278 -0.002444 0.003364 -0.004944 0.000290 0.006487 -0.003644 0.008167 -0.000634 -0.007665 -0.006307 -0.000620 -0.001634 0.004929 -0.006983 -0.004978 -0.006582 0.004650 0.005862 0.002610 -0.001091 0.005075 0.002834 0.003572 -0.000981 -0.000090 0.003804 -0.004023 -0.004898 -0.003040 0.005391 0.002276 0.006307 0.008303 -0.003594 0.006267 -0.003113 0.008165 -0.006172 0.000893 -0.002859 -0.002811 0.007707 -0.003292 -0.000362 -0.005535 -0.007886 0.007485 -0.006693 -0.002197 -0.001660 -0.003194 0.006997 -0.002636 0.007463 -0.004340 -0.005511 0.003109 -0.003803 -0.005156 0.003427
279 0.001754 -0.003109 0.005704 0.004973 0.003335 0.006025 -0.003863 -0.004712 -0.001912 0.001572 -0.001920 -0.002941 0.003784 0.007445 -0.002666 -0.005881 -0.007251 -0.005703 -0.008134 0.006618 -0.005637 -0.005173 0.001701 -0.004369 0.005000 0.001949 -0.004145 0.004669 -0.005480 0.006461 -0.005710 0.003704 -0.003079 0.001765 0.000326 -0.007875 -0.007823 -0.008131 0.004281 -0.008271 0.000341 0.007736 -0.008021 -0.008011 0.000120 -0.002212 0.003024 0.006357 0.003309 0.001475 -0.007876 -0.007897 0.005261 0.000490 -0.001481 -0.006792 0.001120 0.002890 0.007861 0.003932
3282 0.007826 0.000447 0.000445 0.005441 -0.001656 -0.000715 0.001591 0.005758 0.005977 0.006015 -0.003844 0.007773 -0.006722 -0.003189 0.004410 0.003982 0.003605 0.007348 0.003290 0.006620 0.003964 -0.000140 -0.001888 -0.000399 -0.007184 -0.002501 0.005177 -0.002917 -0.002959 -0.005604 -0.007451 -0.004013 0.005458 0.004985 -0.004703 -0.001193 -0.003984 -0.003204 -0.008080 -0.007713 -0.005373 0.005370 0.002417 0.006214 0.007172 0.005034 0.006826 0.000005 -0.000341 -0.006697 -0.007523 0.004150 0.008011 0.001080 -0.003375 -0.004983 -0.005113 -0.004109 0.003262 0.007525
3519 0.000874 -0.003669 0.007579 0.006101 0.000800 0.004097 0.005199 -0.001462 0.001184 0.005380 -0.002661 -0.005777 -0.005304 0.001981 0.003756 -0.003226 0.000234 -0.007654 -0.004056 0.000640 -0.003953 -0.002354 0.005133 0.003266 -0.005288 0.004461 0.003327 -0.004091 0.001998 -0.003870 0.002981 -0.007205 0.000700 0.001620 -0.006103 -0.001393 -0.004400 0.000806 -0.002391 -0.002655 0.001745 -0.000017 0.003792 0.006058 -0.000235 -0.007804 -0.006591 -0.007697 0.005341 -0.008192 0.003375 0.004448 0.000059 0.008027 0.003475 0.004694 0.006791 0.006179 -0.000464 -0.001100
3518 -0.000334 0.007217 -0.002419 -0.006750 -0.003189 0.008083 -0.004201 0.004347 0.005656 -0.005138 0.000339 0.006975 0.004876 -0.001438 0.003463 -0.005172 0.000746 -0.002091 -0.001842 -0.002381 0.001612 0.003052 0.001208 0.005262 -0.003942 -0.007477 0.005078 0.004233 -0.001942 -0.003767 0.002588 -0.006139 0.002983 0.005613 -0.000391 0.006356 0.004831 0.004399 -0.006012 -0.002478 0.002062 -0.004849 -0.004580 0.003083 0.005402 -0.004607 -0.001704 0.001922 -0.005505 -0.003647 0.003840 -0.003571 -0.005438 -0.002286 -0.008207 0.003807 -0.004484 0.002794 0.007957 0.004630
3513 -0.003529 0.004164 -0.003567 0.006802 0.002020 -0.005220 0.004244 -0.008016 0.004685 -0.007791 -0.004858 0.001249 0.006284 -0.003667 -0.005404 0.007995 0.006286 -0.002226 -0.007651 -0.001951 -0.005852 -0.005452 -0.004764 0.004845 -0.000037 0.008241 0.006978 -0.004062 -0.007749 -0.003110 -0.003721 0.000809 -0.008020 -0.007799 -0.006594 -0.007360 0.002665 -0.005508 0.003154 0.002789 -0.000835 0.004594 0.000819 -0.003198 0.002889 0.002487 -0.002999 -0.001656 0.007580 0.000566 -0.002293 -0.007030 -0.000787 -0.003109 -0.001391 -0.000325 -0.007902 -0.008283 0.002652 -0.003469
3512 -0.005562 -0.008293 0.005987 0.006398 -0.002985 -0.004360 0.006374 -0.002661 0.007279 -0.007868 0.008105 0.001336 -0.005946 0.002750 -0.002037 -0.008089 -0.006677 0.006328 0.006833 -0.001673 -0.008139 0.001061 0.006750 0.002506 -0.007780 -0.007227 -0.003642 -0.005735 0.000672 -0.001243 0.003887 0.000057 0.003464 -0.000711 -0.004774 0.006582 0.003734 0.005759 -0.006440 -0.006286 0.004192 0.007454 0.003959 0.001632 0.007004 0.007559 -0.002086 -0.004116 -0.001230 0.007718 -0.007439 -0.004305 0.002738 0.001828 -0.007231 -0.000622 0.005814 -0.004365 0.005539 -0.002764
3511 -0.002105 0.001130 -0.002581 0.006114 0.007463 -0.005363 -0.000213 -0.003648 -0.001032 0.005702 -0.000161 0.007070 0.007604 -0.005180 0.005226 -0.006168 0.000456 0.004956 -0.001289 -0.005595 0.003921 0.005479 0.002866 -0.001854 0.006113 0.005329 0.005537 -0.001671 0.005029 0.007145 -0.002882 0.004141 0.001165 0.005878 -0.002156 -0.003691 -0.001975 -0.006742 0.005354 -0.007571 0.001577 0.001826 0.007460 0.007444 -0.000528 -0.001311 -0.002126 0.000257 -0.002347 0.001593 -0.007345 -0.004354 -0.001349 -0.003752 0.005562 -0.003872 0.006184 -0.004165 -0.007802 0.006804
3510 -0.001363 0.000530 0.004163 -0.007737 0.000694 0.003062 -0.001234 0.001917 0.003863 0.004493 0.007299 -0.003275 0.007818 -0.000256 0.000191 -0.000562 -0.003124 -0.007554 -0.003952 -0.006364 0.004263 0.001066 0.003069 0.002777 -0.006416 -0.001055 -0.000679 -0.004063 -0.001839 -0.007141 -0.000576 0.001431 0.002074 -0.004666 -0.006138 -0.000624 -0.001305 0.003591 0.005583 -0.007276 0.003888 -0.006392 -0.007052 -0.007112 -0.007714 0.001924 0.006809 -0.003527 -0.007323 -0.002152 0.001771 0.006379 -0.006181 -0.003143 0.004607 0.001879 0.003084 0.005357 0.003070 0.000978
3517 0.001433 -0.000645 -0.002684 0.006677 0.006710 0.006191 -0.000375 -0.006634 0.006822 -0.005081 0.000200 0.006547 0.005635 0.007276 0.005310 0.005681 -0.000520 -0.004641 0.001252 -0.007054 -0.002070 0.005203 0.002347 0.008051 -0.001204 -0.003227 0.002912 -0.004989 0.003209 0.006092 -0.008135 0.004355 -0.002884 -0.000380 0.006451 -0.006108 -0.001309 -0.005206 -0.002684 0.005993 -0.008293 0.006176 -0.004091 -0.002844 0.005132 0.006746 0.007062 -0.002147 -0.004462 -0.000091 -0.000005 -0.003348 -0.000239 0.006813 0.005814 -0.003166 -0.001982 0.001160 -0.006417 -0.007200
3516 -0.008098 -0.008265 0.001461 -0.003461 -0.006532 -0.006944 0.005922 0.007377 0.006430 0.004705 0.000705 -0.006675 0.005815 0.001780 0.007974 -0.008013 -0.006988 -0.002680 0.006970 -0.006064 0.000232 0.001168 -0.001416 -0.003648 0.000374 0.005447 0.002519 -0.005313 0.005220 0.003921 -0.008164 -0.003256 0.001840 -0.002591 0.001741 -0.002291 0.003116 -0.006502 0.007899 -0.002975 -0.000840 0.001939 -0.000762 -0.000422 -0.003196 -0.007167 -0.002697 -0.005966 0.002531 -0.002848 0.001459 -0.000116 0.000242 0.006608 -0.007603 -0.003163 0.006000 0.002089 0.007702 -0.001252
3515 -0.005180 0.002613 0.000245 0.000003 0.002722 0.008149 -0.004231 0.006435 0.003418 0.002388 -0.001737 0.000421 -0.004468 0.005184 -0.001152 0.001838 0.000631 0.003547 0.005397 0.001149 -0.003391 -0.003389 0.006970 -0.008001 -0.000982 -0.000490 -0.005880 0.002348 -0.005145 0.005809 0.004503 0.002547 0.001740 0.001068 0.000714 -0.007564 0.000383 0.007071 0.001431 -0.000681 -0.005542 -0.003153 -0.001381 -0.005759 -0.005737 -0.005779 0.000987 -0.006509 -0.005946 -0.001640 -0.007911 0.001560 0.002276 0.005365 -0.003598 0.006279 -0.005631 0.000164 -0.004544 -0.002334
3514 0.001170 -0.006268 -0.001955 0.006778 0.005279 0.008004 -0.006511 0.001193 0.006567 0.001340 -0.001591 0.007279 -0.000670 0.001768 -0.001194 -0.007313 0.007999 -0.007406 0.008307 0.001249 0.003996 0.005422 -0.000307 -0.000997 -0.005891 -0.001479 0.000703 -0.007638 -0.002885 -0.000579 -0.005816 0.003949 -0.003397 0.007583 -0.004649 0.002799 0.006955 -0.006907 -0.001633 -0.006152 -0.003448 0.006389 -0.003543 -0.000703 -0.002209 -0.004225 -0.005029 0.003533 -0.004091 0.004203 0.005553 -0.005739 0.001414 0.004872 0.004472 0.006087 -0.003370 0.007136 0.007521 0.004476
2688 0.000492 -0.000628 0.006691 -0.005024 0.002013 -0.008086 0.003881 0.002349 0.003366 0.008074 -0.004048 0.000223 -0.002772 -0.005089 0.000216 0.008331 0.001229 -0.002833 0.001022 0.003063 0.006296 0.004823 -0.001236 -0.006435 -0.005952 -0.005172 -0.007594 0.007066 -0.002818 -0.003053 -0.004477 0.004125 0.001847 0.001191 -0.004011 0.001781 0.003935 0.002432 0.007988 0.005459 0.007045 -0.003838 -0.003986 0.003780 -0.002384 -0.002839 -0.002449 0.008000 -0.000044 -0.002424 0.005582 0.003622 0.005446 0.004276 -0.001016 0.002091 0.000001 0.006787 -0.000761 -0.002942
2689 0.001561 -0.000732 0.000793 0.001407 0.006750 -0.003059 -0.000785 -0.004698 0.003587 0.005280 0.001784 0.002621 -0.006868 -0.001291 -0.000101 0.002825 -0.002978 -0.002257 -0.002989 0.000599 0.004918 -0.001852 -0.003104 -0.003349 0.001256 -0.004733 -0.002161 0.003965 0.006483 -0.004183 -0.003472 0.007778 -0.002651 0.006822 -0.000357 -0.000307 0.000371 0.001701 0.002585 0.007098 0.007835 -0.005061 0.005407 0.008000 0.006064 0.000794 -0.000003 0.003952 0.003595 0.003759 -0.002800 0.004242 -0.006639 -0.000236 0.007108 0.005809 0.001788 -0.005225 -0.006796 -0.004079
2684 -0.000669 -0.001326 0.001093 0.003124 -0.000347 0.006932 0.006403 0.007937 0.004363 0.006189 -0.005575 0.006414 -0.006009 -0.000824 -0.002428 0.005739 0.004625 0.003946 0.005098 0.005643 -0.000252 -0.004652 0.007015 0.000568 0.000417 -0.000928 0.001168 -0.005892 -0.008248 0.008022 0.006103 0.003296 -0.006423 0.007775 -0.004807 -0.003045 -0.004764 0.004130 0.004595 0.005859 -0.008175 0.004308 0.003104 -0.000238 -0.001873 -0.006081 0.000953 0.000109 -0.003939 -0.004155 0.004545 0.007789 -0.003723 0.007865 -0.002008 -0.005878 -0.005401 -0.000595 0.005261 -0.001320
2685 0.002178 0.003103 0.007522 0.002010 -0.000210 0.005186 -0.003952 -0.007481 -0.002762 -0.006329 -0.007531 0.000364 0.002148 0.006640 0.003807 0.003066 -0.005999 -0.001480 -0.004477 0.002164 0.006293 -0.000886 0.002963 -0.004382 0.003718 0.001292 0.008246 0.006563 0.003007 -0.003244 -0.003313 0.004453 -0.004793 0.004968 0.006565 -0.003276 0.003593 0.006876 -0.001474 -0.003612 -0.003334 -0.006563 0.003931 0.004828 -0.006946 0.003750 -0.008256 0.007551 -0.001871 0.005898 -0.005629 0.002903 0.003286 0.005790 0.006221 -0.004673 -0.001243 0.003353 -0.005140 0.005216
2686 0.006480 -0.007727 0.005254 0.007728 -0.006523 -0.005030 -0.005472 -0.007938 0.008321 -0.003426 0.004666 -0.005775 -0.003450 0.006302 -0.006251 0.006892 0.004102 -0.004326 -0.005872 -0.007904 -0.004295 -0.006567 -0.000306 -0.007299 0.003671 0.000055 -0.006338 0.002334 0.001737 -0.002075 -0.002692 0.005766 -0.004965 -0.007313 0.001263 0.005200 -0.002932 0.003776 0.000799 0.005846 0.004836 0.002196 -0.001939 -0.006231 0.001154 -0.003150 -0.005733 0.007654 -0.006998 -0.004513 0.005904 0.006518 0.002608 0.006246 -0.008158 0.001544 -0.006856 -0.000048 0.001204 0.004603
2687 -0.008269 0.008142 0.005313 -0.002670 0.000101 -0.000353 0.001707 0.001299 -0.004664 0.006467 -0.005985 0.004662 -0.005635 0.001852 0.006138 0.000569 0.004775 0.006450 0.003025 0.006543 0.004369 -0.007019 -0.006393 -0.007350 -0.000596 0.003587 -0.002538 0.002005 0.007248 -0.002437 -0.003032 0.003832 -0.001340 0.001429 0.001167 -0.005363 0.007728 -0.000235 0.005357 -0.008237 -0.008279 -0.005959 -0.002343 -0.006441 0.004566 -0.001511 0.003532 -0.004212 0.007695 -0.003720 -0.007309 0.003193 0.007785 -0.001924 -0.000459 -0.002923 0.007767 -0.007010 0.003437 -0.004231
2680 0.007020 -0.003964 -0.000457 -0.006232 -0.006102 0.001826 -0.004893 0.001115 -0.003509 0.001073 0.002219 0.002442 0.004603 -0.007385 0.004571 -0.006718 -0.002613 0.007252 0.006273 0.007127 -0.000696 -0.003687 0.003535 -0.002216 -0.008193 -0.000160 -0.006849 0.008112 -0.004854 0.004423 -0.007229 -0.000106 0.001120 0.002708 0.004020 0.004489 -0.006086 -0.000068 0.004548 -0.003253 -0.005843 -0.004161 0.003252 -0.002069 -0.007350 -0.000463 0.006692 -0.006953 -0.006348 -0.000718 0.007408 -0.003204 0.003696 0.005820 -0.006184 0.005821 0.002636 0.001196 0.006870 0.008210
2681 -0.000164 -0.005121 -0.003397 -0.002738 0.002233 -0.007505 -0.004857 -0.001687 -0.007927 0.005928 0.002808 0.000187 0.001935 0.006679 0.001565 0.006426 0.004879 0.006276 0.000576 -0.006908 0.005729 0.003591 -0.003266 0.008307 0.005496 0.002265 -0.003091 0.002475 -0.003696 0.005662 -0.005363 0.006536 -0.006329 0.000085 0.000061 -0.008003 0.007419 0.007019 -0.002863 -0.006636 -0.005584 -0.006942 -0.001913 -0.002275 -0.000134 -0.000445 -0.002056 -0.004316 -0.008086 -0.004558 -0.003303 -0.006006 -0.003680 0.000317 -0.003268 -0.006027 -0.008229 0.001837 0.003321 -0.004100
2682 -0.001994 0.007622 0.003803 -0.001219 -0.002328 -0.002743 0.002331 0.008291 -0.001754 0.006399 0.005097 -0.005424 -0.004684 -0.000552 0.005457 -0.001807 -0.005310 0.001739 0.003599 0.006904 0.005111 0.006593 -0.003758 -0.007088 -0.000871 -0.004414 -0.002918 -0.005980 0.002080 -0.002701 -0.004371 -0.003842 -0.006984 0.007449 0.005398 -0.002620 -0.003183 0.003654 -0.004150 0.000928 -0.001249 0.006673 -0.001513 -0.006349 -0.003456 0.000600 0.008033 0.002327 -0.005057 -0.003733 -0.000367 -0.008018 0.002460 0.004143 -0.003466 0.005072 0.001485 0.001667 0.001234 -0.004192
2683 -0.007470 -0.002934 -0.007275 0.008006 0.004696 -0.000870 0.005210 0.003454 0.007684 -0.002507 -0.006363 -0.007267 -0.000673 0.000839 0.005662 -0.005081 -0.007095 0.006369 -0.002876 -0.002769 -0.001231 -0.004844 0.003191 0.008154 -0.004555 0.005075 -0.008115 0.000141 0.005640 0.007640 -0.001557 -0.000686 0.004179 -0.001139 -0.003070 0.005943 0.003539 -0.005573 0.002630 -0.006759 -0.006817 0.002865 -0.001341 0.007147 -0.006872 0.000048 -0.003365 0.005431 0.002695 0.002267 -0.004622 -0.008156 -0.004173 -0.007744 0.003981 0.006427 -0.006381 -0.001753 0.001475 0.005408
99 0.006725 -0.001193 0.001713 0.001844 0.003396 0.001151 -0.003687 -0.003597 0.002176 0.003895 -0.002781 -0.004237 0.006828 0.006032 0.005336 0.008281 0.005367 -0.002303 -0.007442 -0.007738 0.002453 -0.002128 -0.005201 0.005383 -0.004719 0.005636 0.005182 -0.001898 0.005276 -0.006365 0.004308 -0.003060 0.005552 0.006674 0.003548 0.003608 -0.002910 -0.002249 0.000819 -0.001884 -0.007755 -0.006488 -0.006717 -0.005130 -0.003416 0.003874 0.007213 0.000772 -0.005973 -0.003666 -0.005616 0.005268 -0.002999 -0.000235 -0.008107 -0.005309 0.005638 -0.007293 0.007587 0.005718
98 0.004694 -0.004237 -0.003663 -0.002030 0.004807 -0.004344 0.004014 0.006641 -0.002543 -0.000714 0.004840 -0.005519 0.007162 0.000483 0.008129 -0.008238 0.008084 0.001457 -0.002279 0.001028 -0.007290 -0.003745 0.001967 0.005713 -0.004699 0.002225 0.001720 0.001262 0.000917 -0.008157 0.001212 0.000235 -0.004618 0.003396 -0.007219 -0.005345 0.003879 0.001099 0.005224 0.004861 -0.000474 0.001870 -0.005999 -0.000099 0.001901 0.000587 0.000477 -0.001063 -0.006150 -0.004560 -0.007252 -0.001575 0.005545 0.000854 -0.007992 -0.007056 -0.004695 -0.002403 -0.002649 0.007643
91 -0.003980 -0.002097 0.008275 0.003271 -0.000433 0.005590 0.000049 -0.008189 0.002805 0.007876 0.000922 -0.008154 0.007881 0.000144 -0.006495 -0.005211 -0.002933 -0.000132 -0.003236 -0.004730 0.002608 0.001827 0.004551 0.003474 -0.005583 -0.001134 0.004071 -0.001461 -0.003285 0.000267 0.003765 -0.006177 -0.000262 0.000339 0.001241 0.003055 -0.000095 0.003979 -0.001296 0.005169 -0.006010 0.007718 0.000100 -0.004217 -0.004515 0.007803 -0.007785 -0.007710 0.002101 -0.002266 -0.007765 -0.007368 0.000289 -0.004455 -0.007133 0.006043 -0.001835 0.002767 -0.007646 0.001464
90 -0.000642 -0.002314 -0.003574 -0.007226 0.006991 0.000994 0.005916 -0.003435 0.004140 -0.005679 -0.007048 -0.005078 0.001586 0.001067 -0.006199 0.001117 -0.002897 -0.004279 0.000095 -0.001290 0.007491 -0.005960 0.004041 -0.003175 -0.001779 0.003421 -0.005592 0.007535 -0.006559 0.005315 0.000050 -0.005242 -0.004069 -0.001194 0.002160 0.006001 0.005186 0.002102 -0.007932 0.003696 0.001474 0.002137 0.008277 0.007108 -0.000031 0.003363 0.003442 0.002639 0.001372 0.005843 -0.004713 0.001676 0.007890 0.002390 -0.007050 0.003444 0.000127 0.002016 -0.001333 0.001497
93 0.001449 0.005049 0.007515 -0.003991 -0.008224 0.005176 -0.001596 0.006645 -0.003404 0.007991 -0.000338 -0.003878 -0.007109 0.000587 0.006162 -0.001856 0.000162 -0.001035 0.000129 0.000500 0.005862 -0.002716 0.006680 -0.002677 0.004188 -0.007604 0.005219 0.004709 0.008270 0.005566 -0.000310 -0.005919 0.002557 0.006643 0.001720 -0.001095 0.007845 -0.003962 -0.004347 -0.003152 0.005449 0.006650 -0.004331 -0.001273 0.007961 -0.005572 -0.006713 0.001843 0.003215 -0.000691 0.004418 0.000883 -0.001282 0.007763 -0.008226 -0.006584 -0.000375 0.007591 0.004956 -0.002855
92 -0.003126 0.000988 -0.004675 -0.008279 0.002896 0.008169 0.003686 -0.007023 0.002078 0.004723 0.003071 0.004301 0.001866 0.005029 0.001533 0.002705 0.001792 -0.005936 -0.006649 -0.007675 -0.001665 -0.003401 -0.001368 -0.006855 0.006307 0.006184 -0.003378 0.007654 0.003203 0.007876 0.000524 -0.000647 0.001454 -0.000689 -0.002891 0.000669 -0.006876 -0.006967 -0.002257 0.000822 0.007581 -0.005082 0.003488 0.006183 -0.002388 0.005061 -0.002006 -0.004482 0.008069 0.000962 -0.007670 -0.002894 -0.003275 -0.007653 0.005062 0.007831 -0.001795 0.006657 0.001484 0.007253
95 -0.001878 0.001565 0.007602 0.002874 0.006734 -0.002279 0.005334 0.007814 -0.000216 0.001329 0.005445 -0.005579 -0.006156 -0.002779 -0.007696 0.004255 0.002002 0.001424 0.006815 -0.006687 -0.003264 0.007482 0.003772 0.007271 -0.003022 -0.006557 -0.005998 0.002605 0.001528 -0.001803 -0.001177 0.004494 -0.007304 -0.002794 -0.000226 -0.001301 -0.003458 -0.002437 -0.007413 -0.000893 -0.002097 -0.001048 -0.001882 -0.004893 0.006027 -0.003509 0.000304 0.003678 0.006644 -0.001846 0.002932 0.001683 -0.005341 -0.000616 -0.005909 -0.005680 -0.006968 -0.000860 -0.003250 0.008005
94 -0.002617 -0.004895 -0.007453 0.001603 -0.003243 -0.003489 -0.005884 0.006886 -0.002850 -0.001976 0.007576 0.002324 -0.007135 -0.005555 -0.006496 0.004579 0.001250 0.002452 -0.003755 -0.007994 0.007129 0.003303 0.008099 0.007371 0.003829 0.005557 -0.001949 0.000890 -0.007654 -0.002577 0.001538 -0.003826 0.001798 -0.007592 0.005765 -0.003566 0.001708 0.005157 -0.001481 0.005732 -0.004428 -0.000528 -0.001374 0.002254 -0.003572 -0.003387 0.004013 0.003635 -0.003193 0.003689 -0.003980 0.006595 -0.006140 -0.006986 -0.003625 0.001690 0.005801 -0.007882 0.001594 -0.005334
97 -0.002449 0.007298 -0.001888 -0.002476 0.008324 -0.008131 0.001748 -0.002158 0.007709 0.005474 0.003676 0.001753 0.005334 -0.000304 -0.001758 0.000130 0.006277 -0.001894 -0.007472 0.000137 -0.000621 -0.006591 0.000006 -0.003836 0.000191 -0.007272 -0.002613 -0.003873 -0.006322 -0.002748 0.002873 0.007171 -0.005727 -0.003275 -0.004302 0.004466 0.007065 0.000435 -0.002922 -0.008113 0.003202 0.001503 -0.007746 0.007431 0.000417 -0.002706 0.001292 0.003685 0.000120 -0.005218 0.001404 0.007013 0.002206 0.007746 0.005285 0.003892 0.002004 -0.003275 0.001908 -0.002731
96 0.002638 -0.003269 0.004979 -0.007300 -0.000520 -0.006969 -0.003304 -0.004937 0.000962 -0.001133 -0.007581 -0.000636 0.001867 -0.002787 0.001984 0.008208 0.004525 0.005184 -0.005704 0.001552 0.005275 0.005831 0.001196 -0.006175 -0.005710 0.007481 -0.005538 -0.000893 -0.006875 0.001725 0.004306 -0.000110 -0.003443 0.007600 0.001672 -0.006900 -0.008063 0.007065 -0.000472 -0.006464 -0.005796 0.000577 -0.000723 -0.005416 0.004647 -0.000598 0.003906 -0.001239 0.004531 0.008287 -0.007289 0.006301 -0.002059 0.007080 0.007824 0.001236 0.006984 0.003652 0.002307 0.004786
1177 0.002471 -0.002074 -0.003806 -0.004552 -0.007880 -0.007870 0.006829 0.004539 -0.005390 0.006497 0.003440 -0.001763 0.000467 0.008006 -0.004099 0.004868 0.005600 -0.005742 -0.008289 -0.006161 0.000243 0.003693 0.001505 -0.004453 0.007062 -0.003189 0.003222 -0.004080 0.007635 0.006839 -0.005213 0.004259 -0.004329 0.002652 -0.007768 0.001510 0.004634 -0.001255 0.005212 -0.004815 -0.005544 0.001362 0.003483 0.007149 0.007450 -0.002106 -0.006205 0.004772 0.000427 0.001301 -0.005230 0.006962 -0.007871 0.006465 -0.003042 0.002308 -0.005620 -0.004472 -0.007788 0.000942
1175 0.002220 0.000554 -0.003928 0.002541 -0.000793 -0.005891 -0.000882 0.007657 -0.006489 0.000810 -0.000278 -0.005321 -0.001125 -0.007688 -0.001929 0.000610 0.004847 0.004846 -0.002186 0.005506 -0.004827 0.000639 -0.004245 0.006264 0.000680 -0.003661 0.003019 0.007888 0.001863 -0.000709 -0.001944 0.004983 0.006363 0.000576 0.002064 0.004224 -0.006904 -0.004063 -0.004446 0.007780 0.000492 -0.005789 -0.007467 0.002155 0.004824 0.007527 -0.001801 0.005206 0.008297 -0.003543 0.003970 -0.007160 0.000905 -0.002868 0.000516 -0.004748 -0.003465 0.007335 -0.005026 0.008268
1174 -0.004286 -0.002181 -0.006683 0.005550 0.002960 0.003439 -0.006504 -0.006439 0.007303 0.003613 0.005135 -0.004679 0.003105 0.006280 -0.001386 0.002885 0.007069 0.000817 0.002714 0.005421 0.003859 0.006297 -0.007174 0.003100 -0.001866 -0.003079 -0.001411 0.003514 0.000298 -0.000345 -0.004054 0.005525 -0.008332 0.004356 -0.004226 -0.006471 -0.000491 -0.003138 -0.003942 0.000531 -0.006438 0.007516 0.005285 -0.000077 0.005524 0.002367 -0.005650 0.006888 -0.000465 0.005578 0.007956 0.008063 -0.007364 0.006201 0.008270 0.005971 -0.003780 -0.007593 -0.003768 -0.005178
1173 -0.008043 -0.007387 0.004211 -0.004190 -0.007498 -0.005028 0.005094 -0.000541 -0.005591 -0.003347 -0.001155 -0.004492 -0.004190 0.004478 -0.006837 -0.001419 -0.003656 0.006686 -0.001233 -0.005110 -0.005319 -0.007883 0.002992 -0.008160 0.004809 0.006770 -0.007063 -0.001427 0.003639 -0.008207 0.006039 0.006384 -0.001234 -0.005942 0.003382 0.002785 -0.005252 -0.004865 -0.004093 -0.003759 -0.006681 0.001935 -0.004993 0.000939 -0.002564 -0.002366 0.007930 -0.004480 -0.007728 0.004990 0.003248 -0.004609 -0.005026 -0.000427 0.006989 -0.001036 0.007499 -0.005159 -0.000892 -0.005766
1172 -0.006308 -0.001446 0.007200 0.000430 0.000523 -0.002217 -0.007084 0.001341 0.006770 -0.000575 0.006141 -0.006400 0.006522 -0.003234 -0.005233 0.000073 0.000345 0.005551 0.007565 -0.003477 -0.006146 0.000034 -0.003068 -0.007136 0.002624 -0.003441 -0.003862 0.004397 0.003220 -0.007222 0.004823 0.004457 0.007843 -0.001426 -0.003369 0.002429 -0.001862 0.000994 -0.000746 -0.000753 0.003124 0.000890 0.000166 -0.005077 0.000221 -0.002432 -0.003318 0.003573 0.005088 0.005694 0.005120 -0.006018 0.005231 -0.006769 0.006785 0.005983 0.005222 -0.007169 -0.003668 -0.002071
1171 -0.003493 -0.003155 -0.001271 -0.004649 0.007966 0.003925 -0.008193 -0.001487 -0.006314 0.004199 0.002891 -0.001852 -0.003837 -0.000558 0.003989 0.004433 -0.005465 0.000378 0.002334 0.004030 -0.003904 0.000393 -0.000498 -0.004327 0.006055 0.006023 -0.002519 0.005508 -0.005138 -0.004847 0.005270 -0.006918 -0.007922 0.006690 0.005199 0.008202 0.000670 0.000641 0.008214 0.004361 -0.000079 0.007118 -0.007410 0.004076 0.004319 -0.005301 0.004778 0.008061 -0.001348 0.006111 -0.007961 -0.005384 0.003452 -0.002056 -0.002334 0.002476 -0.005182 0.006266 -0.007603 0.003982
1170 0.003210 0.002449 -0.002801 -0.004182 -0.003403 -0.005083 0.004288 0.007367 -0.005143 0.006028 0.002669 0.007806 -0.000322 -0.004736 -0.008304 0.006436 0.005689 -0.006890 0.000580 -0.006041 -0.007800 -0.004707 -0.002133 0.001005 -0.002963 -0.006513 0.006951 -0.002841 -0.000207 -0.004097 -0.005472 -0.002335 -0.008292 -0.004728 0.000003 -0.007195 -0.005444 0.007392 0.004185 -0.008166 0.003082 0.000761 0.004805 0.005315 0.004381 0.004928 -0.007664 -0.006522 -0.006009 -0.001195 -0.005510 -0.008285 -0.000146 -0.003703 -0.004773 -0.006658 0.005667 -0.007089 -0.007459 -0.003270
1179 0.000891 0.001352 -0.001071 -0.000000 -0.000024 -0.003913 -0.004778 0.002894 0.003697 -0.000549 0.008277 0.003731 0.003044 -0.005990 -0.004929 0.006021 0.001635 0.005588 0.005970 0.005818 -0.001629 0.004862 0.007035 0.005869 -0.008255 0.005459 -0.006223 0.000443 0.001253 -0.000937 0.000541 -0.000683 -0.001763 -0.008185 -0.006037 -0.001634 0.001144 0.001981 0.006698 -0.007312 0.001970 0.003446 0.000096 0.006796 -0.007590 0.002126 -0.001291 -0.004162 0.008088 0.001695 -0.004490 -0.001085 0.002254 -0.005215 -0.008294 0.005773 -0.000299 -0.005382 -0.004573 -0.004702
1178 -0.005360 -0.005853 -0.003824 -0.002811 -0.004907 -0.004371 -0.007950 -0.007712 0.003570 -0.007860 0.006088 0.000703 0.006923 -0.005717 -0.002416 0.007257 0.001238 -0.002161 -0.007986 0.004986 0.001175 0.000896 0.007393 -0.000674 -0.003748 -0.000497 -0.000145 0.000613 0.002726 0.001258 -0.006121 0.003163 0.004081 -0.007878 -0.002601 -0.004400 0.001576 0.004552 0.003745 0.003904 0.000296 0.005616 0.001423 -0.000622 -0.004001 0.000342 -0.008218 -0.003785 -0.004678 0.001900 -0.006452 -0.003330 0.004308 -0.003425 -0.000857 0.001066 0.003240 -0.000885 0.004273 -0.007922
876 0.007495 -0.000462 0.003360 -0.005388 -0.008310 0.007158 -0.006642 -0.000344 -0.000218 0.001346 0.007521 0.005418 -0.002671 0.005241 -0.007000 -0.007027 0.007678 0.006710 0.007412 0.007496 0.007027 -0.002647 0.002853 0.003850 -0.003592 -0.004711 0.000049 0.000699 -0.006132 -0.008055 -0.001114 0.001146 0.000580 0.007416 0.004975 0.008296 -0.006065 0.001492 -0.005129 -0.003952 0.000380 -0.006981 -0.002747 0.001918 0.005725 -0.000386 -0.003297 -0.007451 0.001647 -0.001736 -0.006386 0.003555 0.000947 0.001831 0.007453 0.007616 -0.003328 0.003564 -0.001288 -0.006754
3431 0.004776 -0.004044 -0.005499 0.005594 -0.000670 -0.000961 -0.004212 -0.000749 -0.003581 -0.003474 -0.002093 -0.007209 -0.004685 -0.008037 0.003826 0.001512 0.006864 0.003463 -0.004470 -0.002629 -0.005057 -0.007608 -0.005955 -0.006162 0.001558 0.007522 -0.001516 0.001164 0.006362 -0.008169 0.000466 0.001414 -0.001607 -0.000262 -0.006737 0.002861 -0.000912 0.004973 0.000481 0.004343 0.008117 0.003310 -0.005016 -0.005643 0.000059 0.002723 -0.005224 -0.007224 -0.001442 0.007988 -0.005948 0.004053 -0.006673 -0.006813 -0.001181 -0.005959 0.004297 -0.001746 0.001227 -0.000761
3432 -0.005992 0.007278 0.004385 0.000627 -0.000708 0.007141 -0.005075 -0.002736 -0.003620 0.000251 -0.006851 0.002645 0.005747 0.000771 0.004302 0.004470 0.001737 -0.000229 0.004505 -0.000198 -0.005450 -0.007964 -0.006538 -0.007888 -0.001536 0.005817 0.005895 0.006912 0.007765 0.001480 -0.005780 0.002818 0.006487 -0.005218 -0.004767 0.001764 0.000469 -0.003129 -0.006396 0.004723 -0.001951 -0.000435 0.004748 -0.000141 -0.006455 -0.003748 -0.008231 -0.000448 0.001689 -0.007092 0.005324 0.007462 0.002785 -0.001835 -0.006820 -0.008173 -0.006000 -0.006235 -0.002119 -0.006841
3433 -0.002012 0.002816 0.008059 -0.002664 -0.003436 -0.003478 -0.007990 -0.004307 0.005822 0.007077 0.004094 -0.005618 -0.004591 -0.004771 -0.002167 0.003059 -0.004842 -0.001147 -0.001205 0.005141 -0.001785 0.007922 0.003398 -0.000448 0.003901 0.001557 -0.002963 0.000178 0.001270 0.006788 0.007381 0.007771 -0.001035 -0.003282 -0.004240 -0.003905 0.006312 -0.003989 -0.002613 0.006615 -0.005151 0.003744 0.007925 -0.003159 -0.003354 0.003445 -0.005273 0.005734 0.000447 0.005427 -0.005254 -0.005127 0.004169 0.002598 0.004086 0.000838 0.005823 0.001360 0.002859 0.000255
622 0.001277 -0.001171 0.002982 -0.004945 0.006591 0.006716 -0.005405 -0.004862 -0.005411 -0.005174 -0.006124 0.001614 0.001646 0.004875 0.001130 0.000502 -0.002683 0.004479 -0.006804 -0.000932 -0.000748 -0.005758 -0.005170 -0.001794 0.000897 -0.003209 -0.001297 0.005396 0.004125 0.007300 0.003796 -0.005321 -0.006157 0.004826 0.005948 0.000395 0.003689 0.007608 0.006327 -0.001726 0.006028 -0.002284 -0.004975 -0.006751 -0.005703 0.003884 0.004640 -0.005982 0.005087 -0.001370 -0.004807 -0.006252 0.003491 0.001004 0.005784 -0.007609 -0.001656 -0.007328 0.004870 0.004748
3434 -0.004017 -0.002026 0.004563 -0.005747 -0.005136 0.002046 -0.001454 -0.002103 -0.000834 -0.003680 0.002033 0.004778 0.004179 -0.004874 0.002121 -0.002613 0.004700 -0.002762 -0.004028 -0.001516 -0.002297 0.005481 -0.001923 -0.004407 0.004623 0.005877 -0.002512 -0.007245 0.005970 0.004374 -0.004300 0.000172 -0.006645 0.004904 0.005804 -0.000146 -0.008129 -0.003385 -0.005681 -0.006462 -0.005361 0.004222 -0.004132 0.003382 -0.003033 0.005029 0.000603 0.007076 -0.001336 -0.007123 -0.005221 -0.008332 -0.004688 -0.005801 0.003602 0.001545 -0.003994 -0.005022 -0.006111 0.005390
621 0.000917 0.006458 0.004913 0.004306 -0.003987 0.005970 0.005220 -0.004667 -0.005919 -0.001945 -0.004658 -0.002562 0.006081 0.007111 0.004668 -0.005858 0.001359 -0.006119 -0.003361 -0.004160 -0.000570 -0.007696 0.000411 0.008099 -0.002858 0.002633 0.001433 -0.000802 0.007681 -0.008175 0.002524 0.007664 0.006913 -0.002475 0.007224 -0.000100 -0.000625 -0.008186 -0.002206 0.004120 0.005885 0.000303 -0.002154 0.004154 -0.003841 0.001678 -0.004911 0.002561 -0.001759 -0.001935 0.007504 0.003411 -0.007656 0.002064 0.001611 -0.006817 -0.004335 0.000797 0.001082 0.006263
873 -0.003982 -0.002197 0.004377 -0.000048 -0.008202 0.000566 0.006642 0.004541 0.003231 0.000408 0.002783 -0.002654 0.002365 -0.007836 -0.002112 -0.000298 -0.000854 -0.004273 -0.001332 0.001579 -0.003045 -0.006958 0.004008 -0.001760 0.005368 0.007926 0.004581 0.001459 -0.003866 0.000934 0.001039 0.003739 0.004796 -0.003275 -0.003973 -0.007758 0.008112 -0.008082 -0.000895 0.007994 -0.006490 0.007119 -0.004621 0.007886 0.002066 -0.001308 -0.003175 0.003894 -0.006656 -0.008284 -0.007192 0.005804 -0.007583 -0.005698 -0.001010 -0.005140 0.002664 0.006881 -0.000485 -0.005868
620 0.003911 -0.006965 0.006997 -0.006446 0.002789 0.000672 0.003681 -0.005652 -0.002293 -0.006112 -0.002958 -0.008264 0.008025 -0.006279 0.001726 -0.006584 0.002920 0.004140 -0.000138 0.001826 0.007348 -0.002665 -0.006325 -0.005431 -0.000338 -0.002381 0.001817 -0.001337 0.004225 0.000981 0.007835 -0.000688 0.004657 -0.001887 0.007127 0.001713 0.006702 -0.002808 -0.005904 -0.002306 0.006589 0.003481 -0.007282 0.002885 0.002120 0.004496 0.002553 -0.000840 0.006873 0.000734 -0.006793 -0.002053 0.007235 -0.003581 0.001800 -0.004154 -0.000464 0.001567 -0.003933 0.003549
870 0.007225 0.003252 0.002836 0.002862 -0.005522 -0.001698 0.005714 0.006067 -0.004427 -0.007397 0.005754 -0.007917 0.006694 -0.002901 0.000636 0.005609 -0.002893 0.001513 -0.004618 -0.002148 -0.003774 0.007523 0.002220 0.006132 0.007589 -0.006097 0.006504 0.003364 0.004351 -0.005471 0.001207 0.006986 0.001243 -0.007294 -0.006901 -0.004147 0.001247 -0.003919 -0.004705 0.003662 0.003445 -0.003367 -0.004769 0.001485 0.003773 -0.007321 0.005585 -0.005109 0.003159 -0.005007 -0.004045 0.001023 0.003933 0.006708 0.007077 -0.002372 -0.007411 0.001692 -0.007593 0.006649
1223 -0.004810 0.005338 0.003728 0.007581 0.003914 -0.001981 -0.005114 0.002516 0.001544 0.007888 0.000712 0.004320 0.005584 0.000027 0.005199 -0.002379 -0.000392 0.001685 -0.006008 0.006883 0.005880 -0.007984 0.002305 -0.006376 -0.002394 0.006795 -0.001373 0.003270 -0.003587 0.003976 -0.004815 -0.007856 0.007143 -0.007031 0.000280 -0.000917 -0.000803 -0.003885 -0.000225 -0.002840 -0.001839 0.001154 -0.001993 0.006182 -0.002870 -0.005689 0.004414 0.007351 0.007625 0.002237 -0.007244 -0.001841 0.001124 -0.001376 0.004165 -0.000511 -0.001597 0.003210 0.005090 -0.007245
871 0.005447 0.007941 -0.006018 -0.006626 0.000273 0.007575 -0.007753 -0.002236 -0.002312 -0.003468 0.004744 -0.006999 0.006882 0.002973 0.004054 0.001814 0.007887 -0.008297 -0.006259 0.001331 0.002008 -0.002648 0.007858 0.007723 -0.007843 0.001958 0.003856 -0.000642 0.003294 0.007326 -0.006272 -0.006379 -0.006900 0.008228 -0.005972 0.006447 -0.000830 0.003002 -0.007106 0.002980 -0.004875 -0.004588 0.000884 0.007074 0.002588 -0.004673 0.004209 0.006642 -0.004350 -0.004171 0.008333 0.001120 -0.000684 -0.004707 0.004786 -0.002085 -0.001997 -0.006327 0.003033 -0.006645
626 0.001521 -0.008269 0.000030 -0.007570 -0.005992 -0.000868 -0.004690 -0.002098 0.001644 0.000061 0.004218 0.005907 0.007661 0.006418 0.008184 0.000934 -0.004722 0.008095 -0.002674 -0.000998 -0.006674 0.001554 0.007243 -0.003154 -0.005065 0.003649 0.002284 -0.007353 0.005736 0.003243 -0.005649 0.004589 -0.008209 0.003502 0.006692 -0.002648 0.002508 0.008168 0.000257 0.004224 0.007446 -0.006352 0.003355 -0.004948 0.006413 0.000489 -0.000118 0.001349 -0.004668 0.005970 0.006724 0.003736 -0.005456 -0.004146 -0.002176 -0.000113 -0.006314 0.006721 0.006986 0.000822
2741 -0.002452 0.001693 0.005456 -0.000018 -0.002336 -0.001877 -0.006976 -0.006243 0.003274 0.003879 -0.007794 0.004810 0.005353 -0.003748 -0.004748 -0.001349 -0.003411 -0.002432 -0.004467 -0.000034 -0.000504 0.003413 0.007070 -0.003928 -0.001709 -0.003713 -0.005738 0.006240 -0.000910 0.000931 -0.002869 0.003644 0.003494 -0.007283 -0.000533 0.002668 0.005206 -0.005303 -0.008268 -0.002074 -0.004812 -0.002875 0.002141 -0.007046 -0.007358 0.007885 0.002653 0.007239 0.006662 -0.007442 -0.003037 0.003988 -0.001904 0.008115 0.005216 0.002351 -0.005367 -0.003659 -0.004922 -0.004916
625 0.005577 0.003288 -0.002455 -0.002519 -0.005185 -0.001968 -0.003143 -0.000716 0.000292 0.006769 0.005365 0.006079 -0.006282 0.003373 0.006831 -0.003971 -0.003047 0.004054 -0.007209 -0.007074 -0.000717 0.005742 -0.002230 -0.007399 0.004518 -0.006625 0.008208 -0.004207 0.001229 0.001473 0.002137 0.004620 0.004793 -0.008166 0.005880 0.002029 -0.003120 -0.007162 -0.005251 -0.004209 -0.003826 -0.001583 0.002623 0.002608 -0.002786 -0.005810 -0.007845 0.006866 0.000811 -0.001308 -0.006926 0.005871 0.004465 0.001615 0.000813 0.006520 0.000445 -0.005189 -0.005462 0.004338
2740 -0.008289 0.004131 -0.000976 0.008267 0.000631 -0.001922 0.008018 -0.007170 -0.007551 -0.004555 -0.003449 -0.002746 -0.007961 -0.004361 0.004987 -0.007605 -0.000769 -0.007496 0.000990 0.005246 0.004731 -0.002336 -0.007694 0.002273 -0.002426 0.004077 0.004513 -0.001882 -0.008031 -0.005872 -0.000137 0.000266 0.005414 -0.005358 0.003143 -0.005649 0.005714 -0.006110 0.003427 0.002307 0.002270 -0.000487 -0.006686 0.002587 0.002352 0.007217 0.003073 0.001206 -0.001515 -0.003465 0.006140 0.004034 -0.000072 0.002420 0.003831 0.004790 0.000995 0.005096 0.004288 -0.007590
624 -0.006400 0.000673 0.000078 -0.005684 -0.007190 0.003132 0.002181 0.007619 -0.000416 0.003636 -0.004861 0.006448 -0.004288 -0.004397 -0.000859 -0.006003 0.004066 0.001929 0.005653 -0.008268 -0.007828 -0.002881 0.003028 0.000695 -0.001130 -0.004647 0.004986 -0.002089 0.003531 0.003691 0.006551 0.007190 -0.002429 0.003491 -0.006580 0.006787 0.003899 -0.001073 0.005736 -0.007569 -0.002750 0.005532 -0.005848 0.001535 0.006331 -0.006782 -0.007160 0.006235 0.002273 -0.000169 -0.007464 0.003601 0.007968 0.006743 0.001797 -0.002927 0.003308 -0.005737 -0.004666 -0.002367
2743 -0.000890 0.001301 0.007251 -0.007160 0.007014 -0.000310 -0.007554 0.004379 0.001454 -0.004237 -0.005504 0.000595 0.002371 0.004493 -0.007461 0.000417 0.003561 0.001980 -0.006566 -0.000237 -0.001873 -0.000574 0.006414 -0.000439 -0.002086 0.007889 -0.000419 0.006633 -0.005189 -0.003995 0.003041 0.004568 -0.003951 -0.004658 0.007605 0.005399 -0.007191 -0.004865 -0.007225 -0.003087 -0.004176 0.006760 -0.005509 0.004379 -0.003536 -0.004651 -0.002146 -0.001666 0.004889 -0.006798 0.000659 0.001352 -0.007498 0.006814 0.007802 -0.006982 0.003234 0.002668 -0.004245 0.001909
2742 0.007308 -0.006305 0.002518 -0.006256 0.007547 -0.004199 -0.002045 -0.005512 -0.003218 -0.005156 -0.000525 -0.001246 -0.005368 0.001519 -0.007016 -0.000613 -0.003302 0.004343 -0.001933 -0.004639 -0.003763 0.005500 -0.007907 -0.006292 -0.007368 -0.005543 0.002011 0.001297 0.007305 -0.003084 -0.000165 -0.006154 0.002800 0.000854 -0.003834 0.004970 0.005757 0.007592 0.004187 0.007628 -0.001714 0.005437 -0.005620 -0.001450 0.006534 0.000093 -0.005820 0.002762 -0.000173 0.000831 0.005780 -0.005382 -0.001630 -0.000798 0.004276 -0.000261 0.000050 0.004879 -0.006274 0.002108
2745 0.001935 -0.006912 0.006151 0.002320 0.006523 -0.005584 -0.008005 0.003402 -0.000990 -0.005917 -0.002321 -0.006542 -0.007942 -0.002559 0.002169 0.006472 0.006565 0.001037 -0.004095 0.005920 -0.001693 0.007744 -0.008124 -0.002556 -0.001244 -0.002241 -0.004961 0.005778 0.004182 -0.000514 -0.006887 -0.008127 0.007835 0.003237 0.000754 -0.004764 0.004244 -0.002475 0.003202 -0.006765 -0.002655 -0.006501 0.003337 0.001107 -0.005172 -0.007841 -0.005074 0.005229 0.000595 0.008225 0.007364 -0.001317 -0.003678 0.000630 0.006038 -0.006967 0.005545 0.008098 -0.007319 0.006491
4597 0.001105 -0.002110 0.007954 0.008060 -0.007418 -0.002080 0.001093 -0.008045 0.007988 0.000600 -0.004400 -0.007083 0.004655 -0.007211 0.000543 -0.003579 0.001706 -0.002516 -0.006852 -0.001212 -0.004890 -0.001493 0.000537 -0.006317 0.006321 0.007652 -0.002909 -0.002799 -0.001686 -0.008083 -0.007587 0.006844 0.004837 0.002279 -0.007866 -0.007034 0.004028 -0.007855 -0.005845 0.000434 0.000465 0.006054 0.007819 -0.006631 0.005733 -0.001194 0.005422 0.004340 -0.000452 -0.005063 -0.000848 -0.000615 -0.003545 -0.006627 0.008200 -0.000516 0.008257 0.007628 0.002959 -0.004636
2031 0.002215 -0.002994 0.002552 0.000917 -0.000433 -0.004016 -0.007650 -0.003316 0.000932 0.006262 0.004238 0.007848 -0.007133 0.002724 0.004122 -0.006290 0.000567 0.002961 -0.007002 0.005958 -0.003195 -0.007494 -0.005162 -0.003815 -0.005006 -0.003664 -0.008178 0.006644 -0.007422 -0.000939 0.005997 -0.004359 -0.003880 0.000740 0.006131 0.000792 -0.003066 0.004534 0.003002 0.001428 -0.003597 -0.004243 -0.007248 0.001787 0.007371 0.000871 -0.002394 -0.001031 0.000077 0.007488 0.007253 -0.006632 -0.001978 0.001873 0.006177 0.002513 0.005143 -0.006850 -0.007353 0.006736
4595 0.000956 0.000689 0.005404 0.002266 0.005801 -0.002312 -0.006341 -0.006125 -0.000141 0.001669 -0.006464 -0.007961 -0.004629 -0.000363 0.006084 0.006566 0.005925 -0.005346 0.002632 0.004003 0.005849 -0.007619 0.003632 0.004148 0.007848 -0.007261 0.007080 -0.000303 0.007281 0.006935 -0.005924 0.002174 -0.004691 0.000884 -0.008064 0.007325 0.002826 -0.006254 -0.007526 0.002681 -0.007554 0.000358 -0.003449 -0.005317 0.000847 -0.006337 -0.004328 -0.003959 -0.001941 -0.004342 0.005763 -0.001017 -0.006035 0.000629 -0.006469 0.006089 -0.005519 -0.005558 0.000189 0.001977
4844 0.001923 0.000684 -0.003158 -0.005540 -0.000563 0.003652 0.004936 -0.007821 0.008145 -0.003608 -0.005771 -0.001341 0.003355 -0.000715 0.006330 -0.008128 -0.005455 -0.007950 -0.005211 0.005374 -0.006125 0.006510 -0.007709 0.001460 -0.006952 -0.000165 -0.005633 0.004277 -0.007352 0.003117 0.008032 -0.007957 0.004013 0.006633 0.000692 -0.006446 -0.003108 0.006969 0.005449 0.000570 -0.008145 -0.007127 -0.003699 0.001110 -0.004143 -0.003632 0.001091 0.007930 0.006491 -0.003294 0.001253 -0.005970 0.001440 -0.001368 0.001012 -0.002871 -0.000858 0.004318 -0.005620 0.006638
4845 -0.002659 0.000600 0.005326 0.000533 -0.004799 -0.007585 -0.003206 0.004236 0.005156 0.002174 0.003127 0.003142 -0.004326 -0.001705 -0.007190 -0.006983 0.007436 0.003239 -0.004045 -0.006339 -0.002197 0.000259 -0.004547 -0.008178 -0.005282 -0.000385 0.002554 0.000099 -0.000690 0.007195 -0.007952 -0.004372 -0.006476 0.003729 -0.005698 -0.007382 0.004050 -0.001849 0.006398 -0.002718 -0.005230 -0.002983 -0.002693 -0.002304 -0.001189 0.000737 -0.006144 -0.002377 0.007691 0.002227 0.000909 0.002392 -0.006244 -0.000737 0.001170 -0.005566 0.000598 0.005288 -0.002129 0.004524
4846 -0.004690 -0.007225 0.003532 -0.001152 -0.007017 0.001702 0.005807 0.002215 0.003548 0.000826 0.008072 0.008100 0.001193 -0.000212 -0.003828 -0.008029 0.001520 -0.008125 0.008207 0.008033 0.005419 -0.007045 -0.004631 0.007004 -0.006642 0.005143 0.004966 0.003308 0.000092 0.004789 -0.002135 0.007549 -0.002418 0.005028 -0.008228 -0.007282 0.008263 0.001109 0.000472 0.001151 -0.006807 0.007049 0.000250 0.005235 0.008197 0.000407 0.006172 0.004504 0.004282 -0.000973 0.007960 -0.000734 -0.001397 0.000358 0.005652 -0.006928 -0.006949 -0.000622 0.000997 0.005686
4847 0.004666 -0.008110 0.006765 0.000408 0.006396 -0.001708 0.007068 -0.000974 0.007225 -0.004365 0.002432 0.006490 -0.000214 0.005321 0.004951 -0.002413 0.004837 0.004071 -0.006555 -0.003465 -0.003970 0.006766 0.006027 -0.005602 -0.005050 0.003916 -0.007836 0.008026 0.006778 0.005707 -0.005821 0.006654 0.007314 0.001109 -0.004655 0.002947 0.004107 0.002431 -0.004648 0.001738 -0.007300 -0.001919 -0.002129 0.003696 -0.007920 -0.002336 0.003518 -0.001424 -0.003920 -0.000006 -0.006161 -0.005929 -0.002538 0.003231 0.002529 0.004143 -0.003430 0.002977 -0.005974 -0.001047
4734 0.004277 0.004706 0.001514 0.006646 -0.001070 0.001660 0.007812 0.004546 0.006164 0.006764 -0.007407 -0.006664 -0.006864 -0.003187 0.000609 0.007296 0.000917 -0.002015 -0.007017 -0.005160 0.001770 0.005394 0.004354 0.001482 -0.007869 0.000642 -0.002185 0.002948 -0.004656 -0.006019 0.001426 -0.007788 0.006942 -0.006415 0.007777 0.002412 0.000858 -0.007041 0.007937 -0.003580 -0.008062 -0.002352 -0.004900 -0.004267 -0.008268 0.005699 -0.005939 -0.008078 -0.001127 -0.004457 0.000155 0.000834 0.007552 0.002451 0.001074 0.004244 -0.004549 -0.005914 0.006021 0.006875
4735 0.002427 0.007805 0.008143 0.001875 -0.000928 -0.004766 -0.000282 0.004437 -0.007895 0.002577 -0.001948 0.003775 -0.002504 -0.001387 0.001976 0.000898 0.000138 0.007841 0.004053 0.006267 -0.004854 0.003595 -0.004945 -0.000015 -0.005496 -0.002823 0.000999 0.001058 -0.000369 -0.003965 0.007759 0.007129 -0.002497 -0.005245 0.002869 0.007571 -0.000719 -0.004203 -0.006059 -0.007624 0.005321 0.007210 0.008252 0.002205 0.006156 -0.004938 0.006544 -0.000309 0.000114 0.002857 -0.001720 0.002199 -0.005277 0.003532 0.007454 -0.001746 -0.008231 -0.005952 -0.008235 -0.000503
4842 0.005717 -0.005531 0.000159 0.006678 0.002078 -0.003233 0.002474 0.007032 0.006263 0.001784 0.002239 -0.006565 0.003157 -0.001516 -0.001773 -0.007745 0.002102 0.000621 0.004419 0.006979 0.004986 0.004529 0.007309 -0.006347 0.004759 0.005500 0.000474 0.007158 0.005177 -0.005907 -0.000369 -0.008272 0.003240 0.004266 -0.007588 -0.007332 -0.008276 -0.000096 0.003444 0.002933 0.008009 -0.002001 -0.008213 0.005718 0.005293 0.002374 -0.007523 -0.005177 0.003948 0.007575 0.004946 -0.003226 0.008159 -0.000627 -0.002284 -0.000456 -0.001674 0.005414 -0.005775 -0.000990
2038 -0.006046 0.004953 -0.006811 0.000143 0.001177 0.003148 -0.005057 0.005192 -0.002622 -0.007327 0.001162 -0.004691 0.006646 0.001114 0.007052 0.006559 -0.005233 0.008127 -0.005802 -0.000418 0.002939 -0.006672 0.002467 -0.000122 0.005158 0.006829 -0.001775 -0.003301 -0.000384 0.007937 -0.002794 -0.007605 0.005397 -0.007134 -0.004352 0.007886 -0.000459 0.007831 0.004202 0.008240 0.003518 -0.004934 -0.006772 -0.007474 -0.000273 0.000647 -0.006597 0.002074 -0.002511 -0.000709 0.007964 0.006036 -0.002273 0.002913 -0.003615 0.004353 -0.004993 0.002540 0.004166 -0.003865
4738 0.006121 0.008305 0.007251 0.004639 0.008041 0.005439 0.000465 -0.000953 -0.002023 0.007977 -0.001225 0.006684 -0.007664 0.008129 -0.006907 -0.003235 -0.006269 -0.004873 -0.006034 0.006926 0.006215 -0.001693 0.002603 0.004935 0.000030 0.002821 0.002071 -0.006817 0.007248 0.002418 -0.007514 -0.000807 -0.001161 0.007169 -0.001057 -0.004144 -0.004005 0.004766 0.006234 -0.005049 0.001565 -0.002034 0.008047 0.004561 -0.001547 -0.004366 -0.007101 0.001988 0.005816 -0.008003 0.002831 -0.007862 -0.005521 0.003237 0.005729 0.002986 0.000060 0.003175 0.004957 0.005697
2315 -0.003047 -0.003569 -0.006383 0.001893 0.007526 0.000357 0.003996 0.007450 0.006376 0.005662 -0.004448 0.002839 0.005547 -0.008033 -0.007311 -0.003735 -0.000555 -0.006984 -0.008290 -0.005717 0.000029 0.005114 -0.005670 0.005463 -0.006451 -0.001437 0.004222 0.002920 -0.006712 0.001625 -0.007966 -0.008149 -0.005647 -0.008301 -0.005404 -0.003135 0.002655 -0.003578 0.000915 -0.003203 -0.004725 0.000837 -0.002677 -0.000040 0.001030 0.005977 0.003901 0.004742 -0.004363 0.000821 0.004168 0.002470 -0.005092 0.000246 0.004073 -0.004123 -0.007308 0.007323 -0.002674 -0.002230
393 0.003541 0.001756 -0.001509 -0.007058 -0.003878 0.001443 0.004776 -0.002413 -0.007798 -0.007380 0.004147 0.005345 -0.000900 0.006935 0.001364 -0.004223 -0.003006 0.006430 0.007256 -0.005361 0.005491 0.005269 -0.002783 -0.001883 0.005484 0.000069 0.005924 0.006643 0.000671 0.004486 0.007146 0.003939 0.003671 -0.003048 0.000053 -0.004997 0.005852 0.003392 0.007876 -0.000329 0.005178 0.007239 0.002821 0.000702 0.004742 0.000553 -0.001207 0.005745 0.005745 -0.005822 0.008247 0.000627 0.004969 -0.000186 -0.000646 -0.000407 -0.000312 -0.004813 -0.003233 -0.003054
391 0.007826 0.002508 -0.006610 -0.004727 -0.001811 0.006206 -0.000085 -0.002841 0.001593 -0.003472 0.008276 -0.006592 0.000691 0.001453 0.002468 0.007706 0.005889 -0.007414 0.005239 0.001426 -0.000628 -0.004658 -0.004146 0.004048 -0.004422 0.003974 -0.006988 -0.008275 0.005008 0.006155 0.008256 0.001848 0.002497 0.007141 0.007453 0.007562 -0.007956 -0.001130 -0.007085 0.001035 0.001608 -0.007156 0.001734 0.004095 0.007056 0.003914 -0.007938 -0.002804 0.001465 -0.006229 -0.006821 0.007410 -0.003702 0.007089 -0.006828 -0.007738 0.002769 0.001646 -0.002332 0.000766
390 0.007165 0.006541 0.004235 0.006325 -0.006935 0.001748 0.004418 -0.006694 0.006028 -0.007930 -0.007473 0.005083 0.002294 0.000532 -0.001182 0.007321 -0.002737 0.003472 -0.004226 -0.005244 0.003890 0.001450 -0.002332 -0.007678 -0.004452 -0.005238 -0.007279 0.002016 -0.005275 0.006262 -0.006403 0.001804 0.006636 -0.008167 0.002839 -0.005188 0.002879 0.001118 -0.006534 0.001709 -0.007129 -0.002302 0.004520 0.008164 0.004468 -0.003539 0.005776 0.001951 0.002870 0.008208 0.007646 -0.008208 -0.000101 0.002892 -0.005556 -0.000723 0.005808 0.001893 -0.004004 0.006721
397 -0.002458 -0.005687 -0.006091 0.006087 0.008114 0.000970 0.002287 0.005416 -0.003827 -0.000981 -0.005496 -0.005874 0.000815 -0.007895 0.007549 -0.000855 0.001849 -0.007142 -0.000054 0.006223 0.001650 -0.007467 -0.002209 0.001492 -0.007277 0.006049 -0.006861 0.007034 0.001909 -0.002302 -0.006623 0.002382 0.006878 -0.004672 0.006771 -0.004134 -0.002427 0.003245 -0.005801 0.005261 0.004154 -0.001280 0.003982 -0.001510 0.002014 -0.008327 -0.006633 -0.006840 -0.000097 -0.005638 -0.000724 0.000209 -0.002087 0.008332 -0.007469 0.001085 0.002672 -0.006546 0.001165 0.000589
396 0.005687 0.001912 0.003637 -0.006864 -0.001362 0.008180 -0.007807 0.006801 0.007570 0.006002 -0.001845 -0.000881 -0.005711 0.008066 0.005684 -0.004194 0.000611 -0.003748 0.007335 -0.003571 -0.006841 -0.005245 -0.005082 0.003397 0.000785 -0.003642 -0.002051 0.006683 -0.003292 -0.008052 -0.002254 -0.001259 -0.001446 -0.007903 -0.005390 -0.007618 0.006765 -0.005630 0.004947 -0.008331 0.006307 0.004498 -0.003659 0.007603 0.004741 0.001279 -0.003912 0.007377 -0.002436 0.001355 0.001996 -0.002169 0.000215 -0.005764 -0.000755 -0.001860 0.001934 0.001570 -0.000020 -0.000712
395 0.005857 -0.001611 0.006585 -0.003294 -0.007965 0.000027 0.003528 -0.002464 0.002141 -0.005118 -0.005336 -0.000235 -0.001107 0.000527 0.007808 0.006531 -0.006878 -0.002559 -0.006374 -0.003692 -0.003310 0.001895 0.006603 -0.001224 0.007616 -0.003577 0.006458 0.004894 -0.002509 0.008307 0.008309 -0.005267 0.005364 -0.003639 0.005322 -0.005709 0.004618 0.005489 -0.000361 -0.000575 -0.006247 0.006484 -0.003422 -0.003950 -0.004108 -0.003241 0.001608 0.006023 0.006392 -0.005912 -0.005139 0.005955 -0.003234 -0.003344 -0.001497 0.004216 0.008299 0.000027 -0.006250 -0.001569
394 0.000338 -0.002169 0.005736 0.007738 0.003197 -0.007532 -0.002595 -0.004335 0.007958 0.001197 -0.004449 0.002978 -0.003414 -0.004374 0.003762 0.000012 -0.000301 -0.000298 -0.002733 -0.004116 -0.002148 0.003622 -0.000094 0.006085 0.007775 -0.003387 0.002692 0.003988 -0.001144 0.005854 0.005968 -0.003474 -0.004156 0.002225 -0.008333 -0.000372 0.008231 -0.000659 -0.006864 0.008008 0.000542 0.003692 0.005208 0.002197 0.001128 -0.004044 0.004165 -0.000590 -0.000676 -0.008332 0.000423 -0.002905 0.008164 -0.000835 0.000243 0.007999 0.008198 0.002094 0.002273 -0.008227
398 0.006753 -0.004342 0.002489 -0.005177 -0.004558 0.008009 -0.003528 -0.000600 0.007030 0.002298 -0.005460 0.000566 0.002751 -0.000975 -0.007793 0.006119 -0.005178 0.002747 -0.004035 -0.006089 0.006491 0.000161 -0.000341 -0.007223 0.006923 0.000428 0.000995 0.006701 0.002885 -0.007183 0.004455 -0.006374 -0.000838 0.003903 0.001551 -0.000758 0.007649 0.007557 0.007784 0.004153 -0.002288 -0.002609 0.003226 0.000104 -0.003561 0.001500 0.003657 0.000970 -0.007751 0.004926 -0.007295 0.004225 0.003610 0.002194 0.006227 -0.003114 0.000804 -0.001310 0.004419 0.003009
2309 0.007288 0.003862 0.001737 0.001266 0.003482 0.008082 -0.002712 -0.003589 0.006667 0.003630 0.002472 0.006041 0.005527 -0.001195 0.001177 -0.001651 -0.003677 0.006834 0.006694 0.004312 -0.000677 0.001911 -0.004124 0.002915 -0.006496 -0.004745 0.000036 0.007318 -0.001476 -0.004122 0.004708 -0.003808 0.000180 -0.003493 -0.007038 -0.006457 -0.002987 0.004651 0.002322 -0.005436 0.002750 0.006628 0.004279 -0.001161 -0.003137 0.001821 0.003529 -0.002953 0.000065 0.001135 0.001929 0.005599 -0.007314 -0.004660 0.003129 0.003156 -0.005380 0.003348 0.001521 0.001325
2308 0.005376 0.007885 0.004973 0.007585 -0.005822 -0.003756 0.004220 -0.006017 -0.007328 0.002864 0.004859 0.000332 0.007978 0.002626 -0.002188 -0.003685 -0.008084 0.001192 -0.004301 0.005229 0.003124 -0.007235 -0.002214 0.005054 0.001504 0.004856 0.006404 0.002801 0.000730 -0.001145 0.000934 0.001699 -0.002384 0.003743 0.007699 -0.001548 -0.001089 -0.003620 -0.000811 -0.007341 -0.002054 0.004845 -0.007284 0.005639 -0.007500 0.006324 0.004105 -0.006715 0.005513 0.006630 -0.005542 -0.004384 0.001122 -0.003337 0.002148 0.005719 -0.007723 0.007637 0.007999 0.006738
4729 -0.003059 0.002006 -0.002384 -0.002876 0.002966 0.004259 -0.001802 0.000328 -0.007365 0.004375 -0.001350 0.000388 -0.008191 -0.004359 0.002528 -0.008213 -0.003816 0.004478 -0.004064 0.001586 0.008017 0.006435 0.007334 -0.000411 -0.001192 0.003044 -0.001882 -0.002703 -0.003642 -0.002192 0.005646 0.006162 -0.008180 0.001051 -0.004955 -0.001294 0.003446 -0.002717 0.003331 0.001889 -0.008321 0.007484 -0.003455 0.006940 0.000004 -0.003136 0.007847 -0.006008 -0.004823 -0.004411 0.005758 -0.006203 -0.001106 0.006587 -0.002538 0.002661 0.004527 -0.006203 -0.001386 0.006571
4728 -0.008051 0.003248 -0.007854 0.001564 0.001937 0.005449 0.004882 0.006745 0.003081 0.000007 -0.006064 0.002400 0.006121 -0.008189 -0.003467 -0.001756 -0.004088 -0.001468 0.006522 0.004247 -0.008015 0.004509 -0.006595 0.006192 -0.005034 0.003604 0.007997 0.002660 0.005851 -0.003427 -0.001991 0.006567 0.001573 -0.007696 -0.006334 -0.005216 0.005977 0.007822 0.000266 -0.001093 0.004969 0.002400 -0.007385 0.005222 -0.007357 0.000335 -0.006902 -0.008165 0.002762 0.001139 0.002168 0.003474 -0.002806 -0.004758 0.004974 -0.004392 -0.006353 -0.002625 -0.007506 0.005308
4725 0.002445 0.005343 0.006945 0.008168 0.002324 -0.003703 -0.007991 0.006928 -0.000876 0.005020 -0.005754 -0.001070 -0.007841 -0.005138 -0.002047 -0.005061 -0.000612 0.001163 0.005263 0.004019 0.004830 -0.005452 0.007733 -0.005869 -0.007695 -0.006102 0.005167 0.000754 0.001056 0.002449 -0.007415 -0.008014 0.000530 0.002091 0.003410 0.001687 -0.007223 0.000907 -0.004278 0.003942 0.007034 0.000712 0.007423 -0.004307 0.002252 -0.004114 -0.001154 0.007463 -0.005630 0.006332 0.005790 -0.005784 -0.007130 -0.003631 0.007214 0.004169 0.008029 0.001860 -0.006516 -0.007791
4724 -0.001675 0.002439 0.005511 0.000890 -0.005447 -0.006250 0.000030 0.008013 0.006476 -0.005383 -0.007680 -0.003631 0.007183 -0.004529 0.006280 -0.000937 -0.005199 -0.008268 0.001864 0.001690 0.007205 0.000898 0.007662 0.006660 -0.004347 -0.002156 0.000054 -0.007358 -0.000432 -0.005017 -0.005143 -0.004088 0.007308 -0.001077 0.007425 0.004175 0.002781 0.002286 -0.005751 -0.006070 0.006827 0.002480 0.004531 0.006197 -0.006286 0.003114 -0.003474 0.003354 0.002560 -0.005652 -0.000899 -0.004201 -0.000269 0.001571 0.000167 -0.000416 0.007496 0.005824 0.000362 -0.005967
4727 -0.000078 0.000956 -0.007387 -0.001582 -0.004021 0.001225 0.004495 0.002109 -0.000676 0.001538 0.005913 -0.006739 -0.005046 -0.005727 0.004949 -0.002626 0.006265 -0.003412 0.005412 0.000002 -0.001507 -0.005123 -0.007008 0.007363 0.005820 0.002079 -0.003395 0.004343 0.006986 -0.003534 -0.004853 -0.003759 0.006508 0.001824 0.004778 0.005647 -0.003651 0.004691 0.000338 -0.006966 -0.005579 0.006453 -0.006831 -0.003800 -0.003024 -0.007194 -0.004116 -0.002173 -0.000468 -0.003337 -0.005098 -0.000695 -0.005863 -0.008229 0.006618 0.006562 -0.000849 -0.001359 -0.003563 0.008126
2302 0.000861 0.004907 -0.003749 -0.005597 0.004096 0.000441 -0.001435 -0.004981 -0.005462 -0.007738 0.007278 -0.007261 0.000952 -0.003152 0.003990 -0.003861 -0.003024 0.004549 0.001436 0.003747 -0.005026 -0.003345 -0.000745 0.002003 0.003347 -0.007209 -0.006857 0.001933 0.004351 0.002155 0.003490 0.004346 0.003359 0.002607 -0.006131 0.001202 -0.007491 -0.002182 0.004285 0.004395 0.007888 -0.007050 -0.005321 0.004067 0.006991 0.008185 -0.002396 -0.003930 -0.004451 0.007982 0.003678 -0.005667 -0.005972 -0.003363 0.005024 0.001660 -0.000512 -0.008088 0.007576 -0.004569
2305 -0.005753 0.004761 -0.006388 -0.002033 -0.002252 0.001960 0.000446 0.002565 -0.008117 0.003936 0.003017 0.005974 0.006438 0.002488 -0.005635 0.007371 -0.007809 0.005991 0.004040 0.005087 0.001117 0.006428 -0.002960 -0.005797 -0.005331 -0.001679 -0.003993 0.000496 0.001845 -0.007063 -0.006692 -0.005648 -0.001296 -0.001184 0.002097 0.001138 -0.005375 0.005969 -0.006604 0.001729 0.006949 -0.001026 0.002481 0.007502 0.007360 0.000596 0.000541 -0.003480 0.001613 0.004813 -0.005315 0.002494 0.005432 -0.001905 0.002790 0.001497 0.007486 0.001380 -0.006356 -0.003532
4720 0.006696 -0.001014 -0.005872 0.004942 0.007651 -0.005136 -0.007892 -0.006475 0.000966 -0.001896 0.002080 -0.006587 -0.001219 -0.005757 0.008183 -0.006126 0.002036 -0.004876 0.004490 0.002641 -0.002714 -0.008001 -0.004327 -0.000317 -0.006723 0.001803 -0.005612 0.000383 0.000566 -0.006913 0.001811 -0.004308 -0.004505 -0.005931 0.002893 0.002675 0.000795 0.006001 -0.005288 -0.006643 0.004650 0.000746 0.006649 0.001215 -0.008027 -0.000452 0.005079 -0.007126 -0.003674 -0.006405 -0.006477 -0.006952 -0.008004 0.001682 0.002752 0.004601 -0.004985 0.005296 0.001005 0.000698
4723 0.005946 -0.000872 0.007696 0.007481 -0.003546 0.003495 -0.008040 0.004386 0.003202 -0.000527 0.000533 0.004306 0.008332 0.000864 -0.000480 0.005982 0.005456 0.001419 -0.006323 0.005030 0.001374 -0.006436 -0.005632 -0.008268 -0.003854 0.008319 -0.003963 0.007307 0.004015 -0.004042 -0.006206 -0.007923 -0.001752 0.003344 -0.000765 0.007295 0.006119 -0.004692 -0.004546 0.003019 -0.005265 0.000418 -0.005092 -0.003034 -0.005609 -0.003869 -0.004647 -0.003471 -0.003563 -0.007054 -0.001597 0.005161 -0.004169 -0.008099 0.000104 -0.000316 0.002248 0.000841 -0.008296 -0.000385
2306 0.001369 -0.001215 0.003785 -0.005430 0.006699 -0.006180 0.007657 -0.007868 -0.007742 -0.006679 -0.005503 -0.000430 -0.000083 -0.006952 0.001352 -0.007046 -0.000098 -0.002055 0.006160 0.000623 -0.007231 -0.001599 0.007647 0.005107 -0.005563 -0.000911 -0.000751 0.004994 -0.004284 0.000201 -0.002410 0.004955 0.003875 -0.001708 0.004099 -0.005508 0.000241 -0.005828 -0.007224 0.000757 -0.000551 -0.004631 0.007269 0.000261 -0.001701 -0.005464 0.003942 -0.005326 0.000718 -0.002336 -0.001811 -0.007766 0.008092 -0.002407 0.005584 0.004826 -0.001725 -0.001180 -0.001309 -0.000054
5847 0.006843 -0.004818 -0.000683 -0.003717 -0.007574 -0.000699 -0.005486 0.002708 0.003048 -0.006091 -0.001737 0.007517 0.006551 0.007302 -0.001037 0.001464 -0.003543 -0.003156 0.006857 0.000314 -0.002475 0.000411 0.006413 0.004900 -0.004594 -0.007058 0.001903 0.000605 -0.000982 -0.005625 -0.007974 0.001380 -0.002216 0.001757 -0.004682 -0.006418 0.004090 0.001351 -0.000967 -0.008228 0.006489 -0.002392 0.005183 -0.002031 0.005135 -0.003015 -0.004881 0.007652 -0.003961 -0.003935 -0.006691 0.001128 0.008082 0.003973 -0.004862 0.001630 -0.005019 -0.006195 -0.004597 -0.000498
5846 -0.004095 0.006921 0.003836 -0.004476 -0.005556 -0.004093 -0.006710 0.001305 0.001441 0.006975 0.001229 -0.006128 0.003699 0.007232 0.000992 0.000548 -0.008231 -0.007650 -0.004893 0.007241 -0.002961 0.006230 0.004444 0.007610 0.000641 0.001347 0.004478 0.000136 -0.000803 -0.006796 -0.002345 -0.007235 -0.003144 0.000946 0.004380 0.002982 -0.005427 0.002264 -0.002868 -0.002579 0.003649 0.000867 0.002229 -0.001370 0.004689 -0.006087 0.004442 0.000196 0.007199 -0.005638 -0.005502 -0.006594 0.003740 0.002037 0.006106 0.000450 0.006453 0.006032 0.000768 -0.000028
5845 0.004137 0.007960 -0.007262 0.006571 -0.000505 0.004922 0.003945 0.004511 -0.005434 -0.000330 0.000201 0.008222 -0.007334 0.000734 -0.008295 0.003483 0.002109 -0.001462 0.002268 -0.007364 -0.005512 -0.005847 0.008109 0.006844 -0.002194 -0.006471 -0.002926 0.005868 0.006883 -0.006399 0.007851 0.007526 -0.000763 -0.001692 -0.005019 0.003355 -0.008055 0.007087 0.003581 0.000454 -0.007315 0.004563 -0.005762 0.004244 0.003688 0.000431 -0.002764 0.007409 0.000334 -0.003985 -0.001603 0.003709 0.008186 0.007763 -0.004886 0.003436 0.006319 0.000047 0.007603 0.006075
5844 0.005108 -0.007981 0.001779 0.000221 -0.004343 0.000543 0.004304 -0.004441 0.000119 0.004445 0.001791 -0.007383 0.001948 -0.003549 -0.006427 0.006130 -0.004193 0.005705 0.005011 0.004154 -0.005721 -0.000382 -0.003332 -0.005787 0.001256 0.004176 0.003188 0.001910 0.007136 0.007455 -0.006597 0.002870 0.003462 0.005768 -0.001886 0.006374 -0.008123 -0.004299 -0.005948 -0.000739 -0.007012 0.006066 -0.001518 0.004831 -0.001979 0.003092 0.006138 0.005250 -0.001210 -0.004074 -0.000844 -0.006290 -0.002038 0.001253 0.008292 -0.001181 -0.007346 -0.007681 -0.006055 -0.005024
5843 -0.005326 -0.005190 -0.007596 0.001969 0.004926 -0.002227 0.004470 -0.003339 0.007170 -0.003958 -0.005278 -0.004560 -0.005799 0.002399 0.000872 -0.006737 0.007865 0.007976 0.003878 -0.002021 -0.003994 0.000197 -0.001502 0.004986 0.003409 0.004569 -0.002532 -0.000262 -0.003516 0.007130 -0.006329 0.002769 -0.001244 0.005982 -0.007527 0.007365 -0.005650 0.000301 -0.000434 -0.000238 -0.003460 -0.000630 -0.005384 -0.000635 0.002454 0.004978 -0.001544 -0.003162 -0.007396 0.007314 -0.003462 0.005853 -0.002618 -0.003567 0.001897 -0.002743 0.008173 0.002575 -0.004129 -0.006890
5842 0.000526 -0.003859 -0.003473 -0.000142 0.004112 -0.007286 -0.001846 0.001512 -0.006022 -0.006707 -0.002744 -0.008274 0.000689 -0.007542 -0.001645 0.004045 -0.007821 -0.007964 -0.000176 -0.001318 -0.002019 0.003771 -0.007775 -0.004098 -0.004593 -0.000552 0.002981 -0.004433 -0.001704 0.002512 -0.001227 -0.006597 0.007753 0.006034 0.002439 0.005919 -0.007335 0.006574 0.007654 0.002865 0.004451 -0.002482 -0.005231 -0.000352 0.004338 0.006323 -0.007835 -0.006738 0.006772 0.008021 0.005383 0.005985 0.003742 0.005985 0.008130 0.001337 -0.007837 -0.004480 0.005720 0.004044
5841 0.003504 0.005555 0.000484 0.003430 -0.004043 -0.006516 0.000960 -0.007346 -0.006496 0.000372 -0.000654 -0.006172 -0.005685 -0.001509 -0.007064 0.005569 -0.006931 0.003312 -0.005696 0.002558 -0.006020 -0.001088 0.003098 0.005124 0.003408 0.006517 -0.005720 0.000290 -0.005425 0.003507 -0.002326 -0.006731 0.003444 0.004116 -0.000904 0.006530 -0.007988 -0.008059 0.001949 0.007215 -0.001549 -0.001049 0.002634 -0.001068 -0.002566 -0.008037 0.003151 0.006374 -0.001525 0.007593 -0.006844 -0.000556 0.001115 -0.005763 -0.000271 -0.004350 0.004263 0.002064 -0.006455 -0.001842
5849 -0.006654 -0.003113 -0.007709 0.001683 0.006175 -0.007584 0.001334 0.000756 -0.007999 0.005558 0.000470 -0.006443 -0.002224 0.005026 0.001848 -0.006632 0.007928 -0.006959 0.006758 0.001482 -0.003044 0.003294 0.004136 0.005379 -0.003539 0.001295 -0.000286 -0.008304 -0.000379 -0.004055 0.003640 -0.007958 -0.006594 0.003984 0.007295 -0.005090 -0.003806 -0.006615 0.007010 -0.003147 0.008017 0.002296 0.001811 -0.000415 0.007538 -0.002213 -0.000663 0.008140 0.005252 0.001755 -0.000336 -0.001829 -0.002959 -0.005550 0.000843 0.006761 -0.004353 -0.003629 -0.004735 -0.000122
5848 0.001138 0.006125 0.006523 0.003652 -0.003173 -0.003393 -0.005685 0.007348 0.001420 -0.000011 0.000573 0.005690 0.000429 0.007487 0.006733 0.001878 -0.005911 -0.004947 -0.001567 0.006013 0.004360 0.007433 -0.003864 -0.004227 -0.000260 0.004067 -0.005419 0.005018 -0.005697 -0.005683 -0.002358 0.004355 0.003707 -0.007244 -0.007972 0.005760 -0.007955 0.005200 0.000396 -0.004966 0.006201 0.003121 0.005860 0.008035 -0.006331 -0.006752 0.000101 -0.003232 -0.006235 -0.003971 0.003697 -0.006629 0.003821 -0.006141 -0.004921 -0.004192 0.005751 0.001497 -0.004227 -0.007434
3748 -0.000377 0.003984 0.002297 0.006803 0.006322 -0.001871 -0.003869 -0.003338 -0.003806 -0.002522 -0.003922 0.002108 0.007023 0.000633 0.000957 0.005205 -0.002644 0.003206 0.000526 -0.002390 0.006583 -0.007674 -0.001545 0.001677 0.001360 0.007956 -0.005578 0.004145 0.002332 0.006383 0.005773 -0.003454 0.002535 -0.007289 -0.003338 -0.001624 -0.004461 -0.000751 0.001008 0.001399 -0.003474 -0.007210 -0.005459 0.002155 -0.005786 0.007691 -0.004844 -0.000317 0.005897 -0.004235 0.001115 -0.004851 -0.005642 0.006708 0.005822 -0.003515 -0.007187 0.004638 -0.000532 0.001382
3749 0.000389 0.000844 0.003568 -0.003603 -0.005410 -0.000917 0.005017 -0.000776 0.003285 0.003651 -0.008287 0.006397 -0.006916 -0.001244 -0.002538 -0.003715 -0.005164 -0.007571 -0.003320 0.003759 0.000764 -0.006176 0.003452 0.007520 -0.007296 -0.003817 0.003382 0.002422 -0.004840 0.003197 0.002774 0.001602 -0.000057 -0.002297 -0.008271 -0.003060 0.000575 -0.005567 -0.003728 -0.000691 0.004933 -0.006841 0.006199 -0.001656 0.005921 0.000070 -0.007584 -0.000937 -0.007990 -0.001113 -0.004352 0.006574 0.004596 -0.007529 0.005750 0.007130 -0.003742 -0.006661 -0.003233 0.004143
3746 0.007749 0.000615 -0.007461 -0.006254 -0.002892 -0.004678 0.004704 0.002767 -0.000298 0.004870 -0.006234 -0.000605 -0.007172 0.005365 0.007798 0.006260 -0.002927 -0.004753 -0.001098 0.002908 0.002189 0.007661 -0.006193 -0.004531 0.007395 -0.006133 -0.004882 0.001635 -0.000744 -0.006883 -0.008095 0.007617 0.007407 0.006283 -0.005937 0.007134 -0.002889 -0.002174 -0.007824 -0.005700 0.000697 -0.003353 0.004580 -0.002408 0.000331 0.003205 -0.001177 0.000066 0.007078 0.000420 0.007005 -0.003517 0.005860 -0.005736 0.004731 0.005648 0.005433 -0.002071 0.000219 0.003866
3747 0.002342 0.004636 -0.008229 -0.002300 -0.001766 0.002809 -0.002064 -0.004262 0.007194 0.000784 -0.005070 0.002776 -0.000761 0.006814 0.002491 -0.005674 0.003898 0.003006 -0.006260 0.000066 0.008054 -0.005286 0.006302 0.006504 0.006822 0.006594 0.006738 -0.007053 0.001303 -0.000588 -0.007481 0.001417 0.007441 0.006411 -0.006751 -0.000778 -0.006873 0.004060 0.008122 0.004405 -0.002817 0.000012 0.002895 -0.007254 -0.000094 0.002329 -0.006581 -0.007440 -0.004817 -0.002731 0.001894 -0.006742 0.000008 -0.007041 0.005333 -0.005978 -0.001095 -0.000323 -0.005696 0.001110
3744 0.000960 0.002004 -0.005771 0.006961 0.002864 -0.004301 0.004573 0.003585 -0.006113 0.001086 -0.006889 0.003960 0.003383 0.002609 -0.006445 0.007382 -0.005893 0.005298 -0.004071 -0.004717 -0.007045 -0.002523 0.004045 -0.000460 0.003000 -0.004222 0.003339 0.005571 -0.001586 -0.006414 -0.002250 -0.000680 0.003813 -0.002858 0.007990 -0.003969 -0.002659 0.004674 -0.006776 0.003408 -0.000214 0.002166 0.002220 0.005908 -0.000142 -0.000509 -0.007471 0.006228 -0.008114 -0.005570 0.001576 0.001892 0.006215 0.000397 0.003586 -0.001898 0.006515 -0.002093 -0.002159 0.003991
3745 0.007377 0.007656 -0.000808 0.007572 -0.000583 -0.005399 0.001463 -0.007513 0.007464 0.000384 0.007268 0.000131 -0.002688 -0.000838 -0.003844 -0.007062 -0.000011 -0.000951 -0.002297 -0.008002 -0.002114 -0.006516 0.003132 0.003450 -0.002232 -0.003567 0.002594 -0.002816 0.006206 0.001544 -0.003749 -0.006639 -0.002662 -0.001127 -0.003710 0.007613 0.002023 0.007403 0.001198 0.005689 -0.006316 0.006575 0.000714 0.004033 -0.003791 0.006947 -0.005328 -0.008224 0.006062 -0.005179 0.001128 0.000403 -0.006129 0.006324 -0.003298 -0.004734 0.005733 -0.002114 0.002966 0.006696
3743 0.003003 -0.001121 0.007111 0.007022 -0.006725 0.001914 0.004639 0.002295 0.007638 0.004780 0.007392 -0.006713 -0.001423 0.004111 -0.005880 -0.002404 -0.002839 0.003978 -0.000708 0.001662 0.008315 -0.004523 0.003353 0.006204 0.003672 -0.007656 0.005913 0.001399 0.000721 -0.002574 -0.008065 0.005375 0.006664 -0.005830 -0.001649 0.006561 0.001981 -0.003225 -0.002802 -0.003266 -0.005067 0.007031 0.004829 0.004149 0.000315 0.003863 -0.002751 0.002500 -0.002671 -0.004041 -0.004032 0.002999 0.002453 -0.006730 0.002326 -0.001730 -0.003201 -0.001629 0.007998 -0.006139
3740 0.002577 -0.002926 0.003253 0.005898 -0.006856 -0.001295 0.001652 0.001481 -0.001276 0.007191 0.008125 0.008276 0.005422 0.002919 -0.000518 0.006374 -0.000077 -0.001333 -0.002674 -0.000493 -0.002811 -0.001763 0.005587 0.001887 0.003561 0.005668 0.001173 0.002216 -0.004980 -0.007044 -0.005990 -0.006256 0.004285 -0.004928 0.005388 -0.006715 0.001273 0.001199 -0.008306 0.006680 -0.000342 0.000624 0.000222 -0.004649 -0.003927 -0.006903 0.007568 -0.001691 0.001123 0.003448 0.003732 -0.007417 -0.005832 0.007347 0.006798 0.002629 -0.007945 -0.005753 0.001493 -0.003524
3741 0.003184 0.006933 0.006029 -0.007351 -0.001728 -0.000501 -0.006309 -0.004460 0.003725 -0.001500 -0.000513 -0.000315 0.000880 0.007030 0.002195 -0.004643 0.006895 -0.006748 0.002249 -0.005300 -0.003989 0.003021 -0.005837 0.004807 -0.006812 -0.007947 -0.004765 -0.002747 0.002937 -0.004847 0.006860 0.006628 -0.006722 -0.005420 -0.002748 0.004860 -0.004343 -0.002046 0.001082 0.004353 0.001799 0.008113 0.007668 0.003899 -0.008120 -0.007229 -0.006653 0.003423 0.000133 -0.007008 -0.000534 0.006709 0.004345 -0.000406 -0.000094 0.006616 -0.005344 0.001823 0.003356 0.003433
4620 0.000666 -0.000696 0.006358 0.004172 -0.007141 0.004520 0.002256 -0.001643 -0.006288 0.007339 0.006478 0.001265 0.005041 -0.004940 -0.002998 0.008293 -0.006706 -0.001444 -0.002636 -0.006652 0.000892 0.004607 0.008031 0.004456 -0.004658 0.001794 0.007652 0.004748 0.002792 -0.000951 -0.006049 -0.006813 -0.006492 -0.000199 0.007084 -0.001284 -0.005727 0.003711 0.001321 -0.004798 0.002097 0.008066 0.008310 0.006960 -0.000436 -0.004793 -0.001018 -0.003806 0.002441 -0.002902 -0.002471 -0.001309 -0.005573 0.007919 0.001665 -0.001448 0.005602 -0.002161 0.005492 0.002357
4622 -0.000105 0.004931 0.006796 0.004292 0.008034 0.001922 0.002909 0.004587 0.001543 0.005096 -0.006084 0.005932 -0.004912 0.001454 -0.003595 -0.001809 0.006832 0.006029 -0.003848 -0.003905 0.007248 0.007966 0.004937 0.005037 0.002158 0.004026 -0.000080 0.001797 -0.006003 -0.002467 0.000093 -0.005008 -0.000919 0.005373 -0.006937 0.006398 -0.006613 -0.004634 0.001736 0.001828 0.004008 -0.001244 -0.000079 -0.000778 -0.000979 -0.001969 -0.001811 0.006471 -0.008270 0.001723 -0.001582 0.000642 0.003402 0.002492 -0.007750 -0.006449 -0.007907 0.001553 -0.006126 -0.002088
4623 0.005642 -0.000941 0.005022 0.005967 0.005938 0.001375 0.000082 0.004183 0.007136 -0.002688 -0.002667 -0.008041 -0.003284 0.002712 0.003435 0.008023 -0.007736 -0.001642 0.006351 0.000331 0.006541 -0.001300 -0.000295 -0.007031 -0.000893 0.006230 0.004105 0.003210 -0.008001 -0.006762 0.008212 0.002479 0.002090 -0.004492 0.007499 -0.003560 -0.007889 -0.007946 0.007684 -0.003796 0.007225 -0.007658 -0.002679 0.006279 0.000566 0.007464 -0.007470 0.001739 0.006576 0.005715 -0.004552 0.007510 0.000112 0.004512 -0.008000 0.002992 0.006873 0.002983 -0.005490 0.005186
4624 -0.002131 0.005841 0.001147 -0.002784 0.008260 -0.004813 0.002978 -0.006194 0.007026 0.007572 0.005617 0.007117 -0.003993 0.002415 -0.006552 -0.005639 0.001008 0.007533 -0.005664 0.007258 -0.008224 -0.001531 -0.006820 -0.002851 -0.005386 0.006947 -0.008083 0.001230 0.000833 -0.001266 -0.004078 -0.002930 0.003342 0.003657 0.004985 0.002575 0.005573 0.007947 0.004132 -0.008143 0.001002 0.003170 0.006676 0.000341 0.001204 0.006176 0.007541 0.001487 0.005854 -0.003327 0.003255 0.006995 -0.005968 -0.003137 -0.005603 -0.007327 -0.000833 -0.007508 0.008165 -0.002730
4626 0.001069 0.006449 -0.005000 0.005461 -0.001010 -0.003114 -0.001191 0.001251 -0.004430 0.003488 -0.000918 0.006957 0.008025 -0.001420 -0.007141 0.006573 -0.001592 0.000001 -0.002432 0.007061 0.007932 0.000897 0.001185 -0.005167 0.008050 0.000621 0.002586 -0.006367 -0.006927 0.003846 -0.003089 0.000777 -0.004466 0.006346 0.006168 0.003607 -0.004599 -0.007656 -0.005912 0.008148 0.005548 -0.004145 0.003356 -0.004273 -0.002919 0.000787 -0.005772 0.006168 -0.005893 -0.001351 -0.002930 0.006034 0.006942 0.000839 0.008063 -0.002272 -0.008060 -0.001526 -0.005263 0.005217
4627 -0.002720 0.007854 0.000220 0.000471 -0.005812 0.004158 0.006733 0.000634 -0.001895 0.002275 -0.003336 -0.000271 -0.001381 -0.003547 0.003746 -0.003232 -0.001732 0.005488 0.005059 0.001869 0.002926 0.002253 0.002960 0.006706 -0.002417 -0.006465 0.002967 0.005106 0.006828 0.006593 0.007287 -0.000796 0.001573 0.002055 0.004277 -0.003924 0.002533 -0.007324 0.004086 0.002642 -0.004007 0.005596 -0.001007 -0.004752 -0.004683 -0.001475 -0.005320 -0.006691 -0.006640 0.005221 -0.006771 -0.007873 0.001193 0.003837 0.003561 -0.007772 0.002662 -0.005278 -0.000522 -0.007779
4628 0.002208 -0.006871 -0.006033 0.007173 0.003360 0.000065 -0.003730 0.004443 0.003862 -0.000904 0.007312 0.006133 -0.007332 -0.008326 0.003138 -0.003965 0.005463 0.007824 0.004063 -0.002694 -0.007329 0.004552 -0.005514 0.004787 -0.000762 0.005316 -0.003969 -0.005851 -0.002309 0.001099 0.003290 -0.005859 0.004226 -0.003989 0.006566 -0.006795 -0.004795 -0.002430 -0.003626 -0.005170 -0.004096 -0.000396 -0.005178 0.008094 0.007604 -0.005635 -0.002069 0.001511 -0.006199 0.003417 -0.005471 0.000450 -0.001489 0.002360 0.001586 0.006781 0.006420 -0.001137 -0.005655 0.002974
4629 -0.003788 -0.008323 -0.006327 -0.001537 -0.007521 -0.007770 0.003015 0.000334 -0.000549 0.006580 0.006324 -0.007422 0.001638 -0.006239 -0.008276 -0.004564 0.001149 -0.006275 0.006680 0.006829 0.005058 0.001897 0.003021 -0.007094 0.003980 0.004095 0.000648 0.007723 -0.001828 -0.000361 -0.003597 -0.001182 0.001860 -0.004208 0.001671 -0.005693 0.007370 0.003873 0.008185 -0.007277 0.008226 0.006867 -0.002274 0.002467 -0.007523 0.003206 0.002661 0.006036 -0.007439 0.003743 -0.005482 -0.002877 -0.002452 0.007678 -0.003109 -0.006810 -0.006087 -0.003369 -0.006764 0.008065
179 -0.006748 0.004700 -0.006575 -0.007547 0.003378 0.008051 -0.000974 -0.001661 0.001805 -0.005944 0.001751 0.006022 0.000294 -0.006400 0.002644 0.004885 -0.004521 0.003096 -0.003079 0.003869 -0.004518 -0.007729 0.001224 0.006799 0.007495 -0.007426 -0.000564 -0.003580 0.002855 -0.000208 0.001466 0.003759 0.007798 -0.002464 0.002770 0.003075 -0.003918 -0.002867 -0.006876 -0.006775 -0.005269 0.005256 -0.007120 0.001928 0.001495 0.003283 0.003370 -0.004892 0.006022 0.005094 -0.005165 0.005365 0.002270 0.000875 0.005097 0.001394 0.008260 -0.006108 -0.005561 -0.001119
178 0.004968 0.006856 -0.005573 0.002649 0.005679 -0.002623 -0.005446 0.001083 0.007799 0.004834 0.006872 0.004416 0.005728 -0.000563 -0.000540 -0.005084 -0.000213 0.002447 0.001218 0.003327 -0.002288 0.006238 -0.004764 -0.000940 0.006280 0.004719 0.002168 0.001915 -0.006797 0.005545 0.007782 -0.001823 0.008173 0.000936 -0.005716 0.004320 0.004085 0.001924 -0.003703 0.000631 -0.003605 0.008162 0.004550 0.001874 0.006234 -0.000366 0.003799 -0.003171 0.004036 0.005862 -0.000594 -0.001188 0.005646 -0.003642 -0.004430 0.007818 -0.006484 0.003546 0.004510 0.001756
177 -0.006453 -0.003979 -0.001436 0.002085 0.007700 -0.007658 0.000248 -0.007591 0.007497 -0.003164 -0.006470 -0.000551 0.003011 -0.000737 -0.002106 0.007975 0.000458 -0.002512 -0.004897 0.007414 -0.006193 0.005708 -0.002533 -0.007964 0.000521 0.003904 -0.004792 -0.001089 -0.006890 0.001584 -0.002646 0.003184 0.002014 0.005550 0.005642 0.006586 -0.007050 -0.003855 0.007315 0.007076 -0.000714 0.007487 0.007312 -0.005688 0.004541 0.001855 0.005135 0.005458 0.006609 -0.005521 0.005783 -0.005834 0.003371 -0.005639 -0.001398 0.000588 -0.006229 0.003512 0.006693 0.005685
176 0.002688 -0.003960 -0.003124 -0.001816 -0.003436 0.005761 -0.001325 -0.005466 0.002975 0.001196 -0.005685 -0.004857 -0.008219 0.006083 0.005906 -0.005127 0.003955 0.002182 -0.003938 -0.003302 -0.007201 0.007034 0.000512 0.000673 0.007775 0.004700 -0.001667 -0.008288 -0.007083 0.006599 0.008074 -0.007563 -0.002908 0.006975 -0.001059 -0.004440 -0.008163 0.002272 0.000088 0.002723 0.000360 -0.005366 -0.006527 -0.007699 0.003368 0.003918 -0.005789 0.007770 -0.006793 -0.003089 0.002363 -0.006406 -0.003281 0.008064 0.007004 -0.004009 -0.005434 -0.005334 -0.004666 0.000691
175 -0.007451 0.001637 -0.001433 -0.002579 0.001997 -0.003906 0.002988 -0.002187 0.007939 -0.003576 -0.001150 0.005866 0.002935 0.004741 0.001589 0.005874 -0.008262 0.002288 0.000163 0.003827 -0.001775 -0.000987 -0.001591 -0.003575 0.002661 -0.005006 0.006394 0.001667 0.003194 -0.007013 0.005660 -0.008220 -0.003489 -0.005433 -0.004680 -0.006311 0.008096 0.001268 -0.008202 -0.001821 0.003320 -0.002203 0.004944 -0.006169 0.002531 -0.006864 0.005293 -0.002742 -0.001374 -0.006451 -0.004104 -0.007500 0.003717 -0.006311 -0.002119 -0.007357 -0.000754 0.006542 0.004752 0.002499
174 -0.001998 0.007378 0.006702 0.008201 -0.004696 0.008199 -0.001383 -0.007692 0.004870 -0.007276 0.003305 0.006760 -0.003354 0.004145 0.000201 -0.000635 -0.000809 -0.005315 -0.000943 -0.005294 0.002157 -0.001746 -0.002443 0.006291 0.002988 0.006854 0.001219 0.008156 -0.008104 0.006033 -0.007347 -0.005492 -0.003441 0.007043 0.005832 0.006279 -0.003359 -0.005851 -0.000733 -0.001920 0.001400 -0.006445 0.007869 0.001338 -0.005656 -0.002226 -0.002699 0.000821 0.005452 0.002230 0.004786 0.003219 -0.002588 0.006915 -0.007013 -0.007802 -0.003443 0.001668 0.006229 -0.004323
173 0.005705 0.005825 0.007787 0.007863 -0.003506 -0.001386 0.002732 0.002695 0.001651 0.005377 0.000964 -0.008002 -0.006062 0.005111 0.002223 -0.006087 0.000471 0.007856 0.002608 0.000755 0.003393 -0.002032 0.005468 -0.000864 0.006713 0.002368 -0.002295 0.007776 0.003751 0.007237 0.005469 0.005227 -0.000592 -0.000396 -0.001412 0.008299 0.005996 0.000851 -0.006939 0.008196 -0.002097 0.001797 -0.005000 -0.001931 -0.002969 -0.007036 0.002192 0.007793 0.004596 -0.002906 0.007214 -0.004675 0.005052 -0.004207 0.004650 0.006940 -0.007577 0.008153 -0.004716 -0.004230
172 -0.000394 0.006380 -0.006816 -0.006894 0.007420 -0.004566 0.005078 0.004465 0.003155 0.006902 0.000555 0.005939 0.001686 0.000884 -0.007342 -0.003707 0.001101 0.004726 -0.004926 0.007326 -0.002113 -0.002092 -0.001492 -0.006950 -0.007083 -0.004571 -0.000763 0.004824 -0.000551 -0.002475 0.002366 0.001479 -0.000189 0.006224 -0.000851 0.003761 0.001927 0.005814 0.004904 0.001040 -0.007267 0.006465 -0.002349 -0.002063 0.004548 0.006044 -0.008012 -0.003560 0.000591 0.002844 0.000348 -0.001176 0.006578 -0.004753 -0.007371 0.000729 -0.005112 -0.007226 -0.002711 -0.006868
171 0.000123 0.003745 -0.006361 0.005100 -0.007917 0.000561 0.002493 0.005231 0.002837 0.000670 0.008234 0.002228 -0.004131 0.003433 -0.003552 0.005072 0.005933 0.001743 0.002997 -0.004001 0.004517 0.006994 -0.001015 0.006659 0.000879 0.006063 -0.000773 -0.005130 0.006227 0.003550 0.004946 0.007155 0.002920 -0.007406 -0.004962 0.003120 -0.006527 0.002060 -0.007130 0.005348 -0.005358 -0.006242 -0.003123 -0.008096 -0.007091 0.000508 -0.001426 -0.005822 -0.007730 0.005815 0.002472 -0.005903 0.007615 0.006984 0.007709 0.004235 0.004718 -0.006006 0.002993 0.008065
170 0.003493 0.000810 -0.003608 -0.000189 -0.006650 0.004691 -0.001350 -0.006536 -0.002163 -0.005107 0.003473 -0.003550 0.007045 -0.005315 0.004673 -0.008255 0.007705 0.004024 0.006201 -0.001044 0.004201 0.002048 0.002101 0.000569 0.000357 -0.007356 0.005530 -0.002227 -0.006772 -0.007474 0.003647 0.000035 0.003994 -0.004004 -0.004200 0.004628 0.001910 -0.006292 0.006114 0.006565 0.003579 -0.007971 -0.007947 -0.000376 -0.003292 0.005442 -0.006345 -0.005408 -0.004398 -0.003177 -0.005278 -0.000341 0.007729 0.000558 0.002562 -0.004784 0.002450 -0.005643 -0.003483 0.000504
6217 -0.000547 -0.004753 0.000631 0.000861 -0.003632 0.003451 -0.008197 0.002551 0.007694 -0.006061 0.004522 0.006216 -0.002731 -0.000740 -0.006970 0.006287 0.003194 -0.007798 0.003475 -0.003580 -0.000913 0.002109 0.005914 0.006890 -0.001412 0.002585 0.006610 0.001419 0.001890 -0.003109 -0.006170 0.000962 -0.007918 -0.001407 -0.001941 0.006307 0.003603 0.007465 -0.001612 0.004008 0.000545 0.006477 0.000974 -0.001271 -0.003220 0.002467 -0.006412 0.008133 -0.000172 0.000343 -0.001608 0.007869 -0.006140 0.000383 0.005824 0.002444 0.004269 -0.006991 -0.007267 -0.005982
6216 0.002098 -0.000169 0.006562 -0.004626 0.003481 0.000893 -0.007464 -0.006109 -0.007256 -0.000141 0.005871 0.001629 -0.002723 0.003059 -0.003377 0.007781 0.004910 -0.000656 0.004444 0.001675 -0.004435 -0.003248 0.000916 0.000179 0.006899 0.007505 0.000641 0.007538 0.008227 0.002808 -0.007163 0.006020 0.001297 -0.006213 -0.008306 0.004204 0.000782 0.005804 0.004711 -0.001698 0.002103 -0.004761 0.003364 0.003653 0.007281 0.000120 -0.006567 -0.007251 -0.002218 0.008229 0.007433 0.000081 0.007232 -0.003843 -0.006314 -0.001512 -0.007445 -0.000912 -0.008175 0.005546
6215 -0.004373 -0.004591 0.006397 -0.003349 0.007129 -0.005148 -0.005964 -0.005895 0.000918 0.006475 -0.005702 -0.001515 -0.004338 0.000935 0.005998 0.005035 0.008120 -0.008202 0.001033 0.007126 0.000178 0.003605 0.005103 -0.007545 -0.003193 -0.004446 -0.006565 -0.003008 -0.001407 0.006643 0.006715 -0.002313 0.000458 0.002928 0.005762 0.008307 0.005385 -0.006647 -0.003197 0.000866 0.007469 0.000391 0.007715 -0.002737 -0.002904 -0.001590 -0.003631 -0.000013 -0.003871 0.001245 -0.005382 0.006112 0.005603 0.006048 0.001691 -0.004200 0.001101 0.001685 0.007867 0.007005
6214 0.007728 0.002864 -0.000778 0.004091 0.001695 0.003816 0.002545 0.000163 0.007165 0.006536 -0.000567 0.004924 0.006697 0.002246 -0.008193 0.004538 -0.004660 0.001606 0.001584 -0.002118 0.006599 -0.003472 -0.000072 -0.007024 -0.003213 -0.000810 -0.002918 0.001876 0.003801 -0.004143 -0.000048 0.004950 0.006589 -0.001537 0.000972 0.000117 -0.003693 0.006716 0.007743 0.003524 -0.004636 0.004686 0.004469 -0.007391 -0.004785 -0.001221 -0.003137 0.006605 0.000977 0.000791 0.006462 0.001118 -0.005170 0.003047 -0.007814 -0.005128 0.006839 0.004394 0.006445 -0.007705
6213 -0.005137 -0.006932 -0.006699 0.003788 0.003528 -0.002034 0.004122 -0.000488 -0.005831 -0.005846 -0.007927 -0.002689 -0.002716 -0.007511 0.004931 -0.000854 -0.000260 -0.002779 0.005497 0.002709 0.007817 -0.004390 0.003534 0.003236 0.008157 0.007045 0.001783 0.004390 -0.006635 0.003412 0.006512 0.001975 -0.000537 0.002061 -0.000203 -0.003168 -0.005270 -0.007893 0.007794 0.002474 0.002029 -0.004503 0.000791 -0.004826 0.007366 0.003620 0.000539 -0.001972 -0.002359 -0.003101 0.004348 -0.000575 0.006190 -0.000409 0.007398 -0.008204 0.004912 -0.007637 0.005497 0.006543
6212 0.006521 -0.000343 -0.006237 -0.000889 -0.002556 0.003604 -0.007279 -0.005330 -0.000359 -0.007142 -0.001538 0.005112 -0.006307 0.007768 0.001808 0.004438 0.000101 -0.000634 0.004226 0.005647 -0.005879 0.007074 -0.000611 -0.003346 0.007610 0.002937 0.005404 -0.002784 -0.003701 -0.008049 0.000806 -0.000177 -0.003045 0.003714 0.001881 0.003385 0.004967 -0.005171 -0.001385 0.002039 0.002544 -0.000201 -0.000244 0.005423 0.004659 -0.000016 -0.006630 -0.007018 -0.002915 -0.005530 0.001298 0.004100 -0.006322 0.003047 -0.000977 0.004012 0.006111 -0.006109 0.006016 -0.004772
6211 0.003982 -0.001915 -0.001605 -0.004877 -0.007852 -0.005093 0.004946 -0.000925 -0.004441 -0.000066 -0.002055 0.003531 -0.005393 0.000279 -0.007860 0.007484 0.000874 0.006165 -0.007157 -0.006598 0.002052 0.001932 -0.000683 0.002155 -0.004975 0.001817 -0.005889 -0.001627 -0.001809 0.008231 0.001838 0.005015 0.006207 0.004488 0.002314 0.004572 0.000885 0.007492 0.000310 0.001984 -0.008283 -0.003073 0.006554 0.005177 0.003311 0.000724 -0.000627 -0.004830 -0.003121 0.002894 0.002607 0.003942 0.006360 -0.006146 0.005809 -0.005146 -0.005425 -0.007298 0.007226 -0.001934
6210 0.005761 0.001669 -0.008329 0.002429 -0.006071 0.003264 -0.005898 0.003449 -0.004936 -0.001715 0.007756 0.003132 -0.000877 -0.000984 0.004425 -0.008001 0.002685 0.004449 -0.007903 -0.006690 0.001624 0.005139 -0.002431 0.007543 0.001023 0.007332 0.003425 0.001156 -0.003136 0.000136 -0.000066 -0.007073 -0.000926 -0.002696 0.001812 0.005034 0.005167 0.006208 0.000803 0.005565 -0.000323 -0.008044 -0.003773 -0.006056 -0.002926 -0.005306 0.005791 -0.001437 0.008049 0.001551 0.006918 -0.006907 0.002510 -0.007441 -0.003783 0.006076 -0.003926 0.001791 -0.006162 0.007355
6219 -0.006452 0.002428 0.001672 -0.007460 -0.004735 0.003667 0.008102 0.006411 0.004615 0.006407 0.007273 0.004143 0.007247 -0.007369 -0.004612 -0.005383 -0.004989 -0.005314 0.000361 0.003880 -0.001285 -0.007052 0.003614 -0.003672 -0.002112 0.000864 -0.003351 0.002580 -0.007668 0.002972 0.006675 -0.001202 -0.000764 0.002853 -0.001777 0.000859 0.004753 -0.000226 0.003266 0.000207 0.000312 0.001912 0.002106 -0.002350 0.007842 0.006104 0.004749 -0.001937 0.000872 0.006584 0.007830 0.005095 0.004924 -0.001112 0.004720 0.002635 0.002491 -0.000446 0.006361 -0.000227
6218 -0.002175 0.006531 0.002056 -0.004243 -0.001080 -0.002728 -0.006992 -0.004216 -0.004387 0.002825 0.007534 -0.002690 -0.006099 -0.004456 0.004966 -0.001488 -0.007456 -0.005710 0.007069 0.000212 0.001702 -0.005521 -0.000805 -0.001640 -0.002365 0.000684 0.002958 0.002198 -0.007180 -0.007916 -0.007157 -0.005758 -0.005725 -0.007660 -0.007409 0.001937 0.001440 -0.001644 0.004422 0.002095 -0.003422 -0.008266 -0.005397 0.004023 -0.000783 0.000495 0.001210 0.005565 -0.006758 0.000479 0.005026 0.000315 -0.005397 0.002932 0.006304 0.005950 0.005961 -0.007048 -0.008040 -0.002927
1115 -0.007961 -0.000270 0.007842 -0.006025 -0.004570 -0.006433 -0.001742 -0.004932 -0.005816 -0.006818 -0.002069 0.003340 -0.003591 -0.001198 -0.000753 -0.002037 0.001801 -0.005792 0.006601 0.005600 0.001563 0.000159 -0.000119 0.008009 0.003507 0.005664 -0.001145 0.001162 -0.001480 0.002075 -0.004866 -0.004551 -0.004380 0.001541 0.000675 -0.006090 -0.003218 0.008247 0.005098 0.003874 -0.005284 -0.002909 -0.003153 0.003832 -0.003357 0.007549 0.003987 -0.006113 -0.007744 0.006701 -0.002216 -0.005228 -0.000024 0.000602 -0.003671 0.005408 0.005410 0.003795 -0.000338 0.000598
1985 -0.004902 -0.000288 -0.000020 -0.005111 -0.004513 -0.007117 -0.005026 0.005586 0.008132 0.007632 0.005493 0.000118 -0.004757 -0.000063 0.001604 -0.007796 0.006570 -0.002797 -0.007497 0.000862 -0.005109 0.006697 -0.001853 0.006047 -0.007329 0.003451 -0.001706 -0.000194 -0.007913 -0.000587 0.007567 0.005838 0.000929 -0.007240 -0.003352 0.005320 -0.001540 0.007854 -0.000494 -0.004497 -0.003539 0.004643 0.000790 -0.004717 -0.007190 -0.000332 0.000153 -0.000891 -0.003089 0.001894 0.005540 0.004360 0.007302 -0.002385 -0.002370 0.000001 0.006441 -0.006509 0.002631 -0.007812
1768 0.002193 -0.005828 0.007730 0.003259 0.002369 -0.008073 -0.000201 0.002318 -0.004485 0.001781 -0.007102 -0.006183 0.005150 0.002061 -0.002525 0.006725 -0.000317 0.000332 -0.004488 0.000709 0.001505 0.006625 0.001890 0.002937 -0.004065 -0.003922 0.005686 0.005900 0.007725 0.005034 -0.007465 0.004998 0.001167 -0.006021 -0.001143 0.006357 -0.007824 -0.000853 -0.007548 0.000351 0.006402 -0.003528 0.001957 0.003176 -0.003847 0.005818 0.005885 0.004252 -0.003241 0.005291 0.006365 0.004301 -0.006852 0.004276 0.000638 -0.001318 0.004931 -0.003397 0.000953 -0.002735
1769 0.000412 -0.005568 -0.007364 0.004951 -0.007035 0.000654 -0.001269 -0.003291 -0.005946 0.005475 -0.004032 0.001556 -0.006946 0.001002 0.000397 0.006307 -0.002854 -0.004900 0.008097 0.003454 -0.002835 -0.000147 -0.004107 -0.004368 -0.007538 0.002345 0.004438 -0.002587 0.004407 -0.006954 -0.006537 0.007636 -0.007026 0.007626 0.003422 0.004084 -0.003166 0.005530 0.005258 -0.001107 -0.001835 0.006119 0.007200 0.007517 0.003987 -0.001594 -0.003708 -0.004371 0.004408 0.006454 -0.003205 0.001895 -0.002341 -0.005560 0.001281 -0.003790 -0.005202 -0.006925 0.005636 -0.000659
1762 -0.008193 0.004754 0.003006 -0.004830 -0.006449 -0.003354 0.000800 0.006190 -0.004613 -0.005284 0.003363 -0.004178 0.007563 0.006323 -0.004551 0.006142 0.004098 -0.005108 -0.004823 -0.006489 0.003367 -0.003616 0.005795 -0.001175 0.003564 -0.005051 -0.002520 -0.003424 -0.000238 -0.002451 -0.005802 -0.001980 -0.000843 0.000308 -0.002963 -0.004979 0.005052 0.004739 0.000212 0.004159 0.005559 -0.005337 0.001796 -0.001792 0.006201 -0.006085 -0.002782 0.006172 0.000173 0.006128 0.001828 0.006193 -0.001042 0.003117 0.004375 0.000616 0.006222 0.005341 -0.003237 0.000637
1763 -0.000243 0.001471 -0.004552 -0.003689 0.003285 0.006365 0.008304 0.007762 -0.000317 -0.005088 0.000046 -0.000225 -0.006244 0.004850 -0.003533 -0.007592 0.004870 0.000278 0.000043 0.003477 0.003717 0.001455 -0.000519 -0.002607 0.002593 -0.002069 0.001880 0.001895 0.004254 -0.007963 0.008015 0.005133 0.005743 0.006486 -0.007995 0.002361 -0.005197 0.002225 -0.007767 0.006784 -0.000137 -0.003748 -0.000428 0.007997 0.004360 -0.000169 -0.002644 0.008246 0.007077 -0.002247 -0.003175 0.000522 -0.003824 0.002543 -0.002353 -0.002962 0.005449 0.003369 0.000780 0.004109
1760 0.003751 -0.007381 -0.007829 0.005372 -0.007059 0.006363 -0.003995 -0.000062 -0.007483 0.001447 -0.004677 -0.002458 0.000044 -0.002908 0.000318 -0.000932 0.000804 0.007301 -0.004688 -0.005316 0.001818 0.005063 -0.003232 -0.003129 -0.000071 0.006275 -0.005765 -0.005890 -0.000989 0.005579 0.001009 0.007701 0.002235 0.005972 -0.007732 -0.005906 0.007780 0.004509 0.002798 -0.005333 0.003151 0.007429 -0.004787 0.001226 0.003063 -0.001369 0.003414 -0.000500 -0.007558 0.001935 -0.007887 0.000353 0.001376 -0.005685 -0.005046 -0.006448 -0.005353 0.004056 -0.000476 -0.005021
1761 0.005723 -0.005399 -0.002537 -0.000290 -0.003144 -0.005485 -0.001370 0.004288 -0.005787 -0.004535 -0.000376 -0.001169 -0.004172 0.007512 -0.003158 -0.007074 0.002669 -0.003315 0.005409 0.004897 -0.001413 -0.006659 -0.006517 0.002130 -0.004782 -0.003865 0.003509 0.003256 -0.001950 -0.000443 -0.007610 0.002071 -0.002926 -0.008241 -0.005489 -0.002778 0.001123 0.002666 0.005744 0.000399 -0.006435 0.002911 -0.005142 -0.007379 -0.007956 -0.005345 0.001655 -0.006091 -0.006118 -0.004102 -0.008052 0.003881 0.004183 0.002928 0.006722 0.005790 -0.003425 0.001684 -0.006601 0.006689
1766 -0.006433 0.005547 -0.002077 0.000950 0.001200 -0.006626 -0.001858 -0.001146 0.005272 0.008116 -0.003508 0.005916 -0.007969 0.004023 0.000560 -0.008291 -0.000640 0.003446 0.004319 0.004752 -0.000619 0.006856 0.005695 0.000959 -0.001745 -0.005630 0.001505 -0.007979 -0.004503 0.001926 0.005419 -0.001187 -0.001917 0.000675 0.007504 -0.008239 0.006963 0.008010 -0.004053 -0.007733 -0.000787 0.001299 -0.000089 0.001798 0.006315 -0.000159 -0.002666 0.001992 -0.001350 0.005493 0.006583 0.000000 -0.007761 0.000949 0.008224 -0.003217 -0.006853 -0.006684 0.002963 0.007053
1767 -0.001299 -0.004840 0.000917 0.003445 0.006049 0.001955 0.001352 0.005304 -0.000332 -0.003746 0.006348 0.004723 0.003706 0.004459 -0.002346 0.003522 0.004946 -0.008020 -0.000778 -0.002352 0.000509 -0.001163 0.004579 -0.006432 -0.007024 -0.002510 0.007088 -0.000497 -0.002783 0.004078 -0.005152 0.003130 0.000904 0.005815 -0.008095 0.003197 -0.005825 -0.006125 0.006221 0.000892 -0.006659 0.000386 0.005632 0.004291 0.005859 0.007129 0.003484 -0.003089 0.005307 -0.001123 -0.007626 -0.000632 -0.001501 0.006380 -0.006672 0.002528 -0.001600 -0.006391 0.001383 -0.003855
1764 0.005803 -0.000362 -0.004361 -0.005970 0.001115 0.002411 -0.003262 0.004527 -0.007643 -0.007472 -0.007894 -0.007856 0.004543 0.004809 -0.004204 -0.002620 0.005223 -0.002253 0.007650 -0.007090 -0.000668 -0.008147 -0.006187 0.008262 -0.004032 0.005432 0.003271 -0.005728 -0.000641 0.006309 0.003806 -0.002449 0.000071 0.002801 -0.000450 -0.004171 0.002621 0.000839 0.007596 -0.003227 0.002038 0.003171 0.005682 0.007448 -0.004696 0.008147 -0.002173 -0.000850 0.001790 -0.006393 0.003914 -0.000966 0.002735 -0.002851 0.005059 0.001156 -0.002496 0.003160 0.000661 -0.003135
1765 -0.002245 -0.004536 0.002800 0.001685 -0.003489 0.001271 -0.005548 0.000180 0.006377 0.008256 0.005934 0.001759 0.002685 -0.004313 0.001999 -0.007557 0.007457 0.002898 -0.007282 -0.004129 -0.004691 0.000855 -0.006396 0.000262 0.003876 0.007328 0.007640 -0.005904 0.005504 0.003637 0.005326 -0.006042 -0.004577 0.005171 0.006548 0.006251 0.005630 -0.006827 0.001560 -0.006784 0.007341 -0.002213 0.001057 0.002047 0.002342 -0.007585 -0.002848 0.007303 -0.007053 -0.007492 -0.004528 -0.006110 -0.007856 -0.002747 0.002746 -0.002205 -0.000678 0.001186 -0.006971 0.006068
1546 0.001299 0.004620 0.006432 -0.004306 0.007538 -0.005387 0.000589 -0.003098 0.007158 -0.007847 -0.001884 -0.007399 -0.007812 0.001732 0.001316 -0.002175 -0.001479 0.006039 0.000778 -0.000440 0.001965 -0.003768 0.007558 -0.006496 -0.008303 0.003602 0.001485 -0.003787 -0.006502 -0.003802 -0.002116 0.006666 -0.001467 0.006795 0.005574 -0.001476 0.006989 0.007987 0.007397 -0.006917 -0.003475 -0.003597 0.004856 -0.006046 -0.006055 0.002292 0.003607 -0.004323 0.006987 0.007937 0.002772 -0.002900 0.004469 0.002481 -0.007092 -0.001400 0.001739 -0.001369 -0.003865 0.005507
1547 -0.007633 0.001696 -0.001893 0.001244 0.001265 0.006837 -0.002653 -0.006504 0.001156 -0.003912 0.007204 0.000191 -0.007951 0.001709 -0.007604 -0.007726 0.004876 -0.007907 -0.000636 -0.001205 0.005783 -0.001169 0.000723 0.005248 0.006563 0.000411 0.000096 -0.004466 0.000401 -0.000957 -0.002367 0.005321 -0.007088 0.000544 -0.000788 0.004005 0.004585 0.002061 -0.003957 0.000366 0.001021 -0.003522 -0.007017 -0.005844 0.000929 -0.005082 0.000201 -0.000751 -0.005326 0.008180 0.004314 0.007905 -0.003514 -0.000883 0.006545 -0.007019 -0.005496 -0.002825 0.006224 -0.007388
690 -0.002961 0.006378 -0.004073 -0.008281 0.000979 0.000508 0.001002 -0.006070 0.001233 -0.007097 -0.003399 -0.002611 0.007845 0.005924 -0.006586 -0.008266 0.003641 -0.001103 -0.006624 0.000916 -0.007581 0.007927 0.003160 -0.007263 -0.003236 -0.000196 -0.006015 0.003957 0.006779 0.003764 -0.004194 0.005632 -0.003844 0.005266 -0.000655 0.003640 -0.005302 0.001161 0.006256 0.005238 0.004299 0.001337 -0.008071 0.001958 0.005176 -0.003177 -0.000425 -0.001408 0.004543 0.000553 0.006287 -0.008260 0.004833 -0.008280 -0.000023 -0.000844 -0.001464 0.006542 -0.007730 -0.003575
